{"learner":{"attributes":{"scikit_learn":"{\"_estimator_type\": \"classifier\"}"},"feature_names":["abdominal_pain","abnormal_menstruation","acidity","acute_liver_failure","altered_sensorium","anxiety","back_pain","belly_pain","blackheads","bladder_discomfort","blister","blood_in_sputum","bloody_stool","blurred_and_distorted_vision","breathlessness","brittle_nails","bruising","burning_micturition","chest_pain","chills","cold_hands_and_feet","coma","congestion","constipation","continuous_feel_of_urine","continuous_sneezing","cough","cramps","dark_urine","dehydration","depression","diarrhoea","distention_of_abdomen","dizziness","drying_and_tingling_lips","dyschromic_patches","enlarged_thyroid","excessive_hunger","extra_marital_contacts","family_history","fast_heart_rate","fatigue","fluid_overload","foul_smell_of urine","headache","high_fever","hip_joint_pain","history_of_alcohol_consumption","increased_appetite","indigestion","inflammatory_nails","internal_itching","irregular_sugar_level","irritability","irritation_in_anus","itching","joint_pain","knee_pain","lack_of_concentration","lethargy","loss_of_appetite","loss_of_balance","loss_of_smell","loss_of_taste","malaise","mild_fever","mood_swings","movement_stiffness","mucoid_sputum","muscle_pain","muscle_wasting","muscle_weakness","nausea","neck_pain","nodal_skin_eruptions","obesity","pain_behind_the_eyes","pain_during_bowel_movements","pain_in_anal_region","painful_walking","palpitations","passage_of_gases","patches_in_throat","phlegm","polyuria","prominent_veins_on_calf","puffy_face_and_eyes","pus_filled_pimples","receiving_blood_transfusion","receiving_unsterile_injections","red_sore_around_nose","red_spots_over_body","redness_of_eyes","restlessness","runny_nose","rusty_sputum","scurrying","shivering","silver_like_dusting","sinus_pressure","skin_peeling","skin_rash","slurred_speech","small_dents_in_nails","spinning_movements","spotting_urination","stiff_neck","stomach_bleeding","stomach_pain","sunken_eyes","sweating","swelled_lymph_nodes","swelling_joints","swelling_of_stomach","swollen_blood_vessels","swollen_extremities","swollen_legs","throat_irritation","tiredness","toxic_look_(typhus)","ulcers_on_tongue","unsteadiness","visual_disturbances","vomiting","watering_from_eyes","weakness_in_limbs","weakness_of_one_body_side","weight_gain","weight_loss","yellow_crust_ooze","yellow_urine","yellowing_of_eyes","yellowish_skin"],"feature_types":["i","i","i","i","i","i","i","i","i","i","i","i","i","i","i","i","i","i","i","i","i","i","i","i","i","i","i","i","i","i","i","i","i","i","i","i","i","i","i","i","i","i","i","i","i","i","i","i","i","i","i","i","i","i","i","i","i","i","i","i","i","i","i","i","i","i","i","i","i","i","i","i","i","i","i","i","i","i","i","i","i","i","i","i","i","i","i","i","i","i","i","i","i","i","i","i","i","i","i","i","i","i","i","i","i","i","i","i","i","i","i","i","i","i","i","i","i","i","i","i","i","i","i","i","i","i","i","i","i","i","i","i","i"],"gradient_booster":{"model":{"gbtree_model_param":{"num_parallel_tree":"1","num_trees":"4200"},"iteration_indptr":[0,42,84,126,168,210,252,294,336,378,420,462,504,546,588,630,672,714,756,798,840,882,924,966,1008,1050,1092,1134,1176,1218,1260,1302,1344,1386,1428,1470,1512,1554,1596,1638,1680,1722,1764,1806,1848,1890,1932,1974,2016,2058,2100,2142,2184,2226,2268,2310,2352,2394,2436,2478,2520,2562,2604,2646,2688,2730,2772,2814,2856,2898,2940,2982,3024,3066,3108,3150,3192,3234,3276,3318,3360,3402,3444,3486,3528,3570,3612,3654,3696,3738,3780,3822,3864,3906,3948,3990,4032,4074,4116,4158,4200],"tree_info":[0,1,2,3,4,5,6,7,8,9,10,11,12,13,14,15,16,17,18,19,20,21,22,23,24,25,26,27,28,29,30,31,32,33,34,35,36,37,38,39,40,41,0,1,2,3,4,5,6,7,8,9,10,11,12,13,14,15,16,17,18,19,20,21,22,23,24,25,26,27,28,29,30,31,32,33,34,35,36,37,38,39,40,41,0,1,2,3,4,5,6,7,8,9,10,11,12,13,14,15,16,17,18,19,20,21,22,23,24,25,26,27,28,29,30,31,32,33,34,35,36,37,38,39,40,41,0,1,2,3,4,5,6,7,8,9,10,11,12,13,14,15,16,17,18,19,20,21,22,23,24,25,26,27,28,29,30,31,32,33,34,35,36,37,38,39,40,41,0,1,2,3,4,5,6,7,8,9,10,11,12,13,14,15,16,17,18,19,20,21,22,23,24,25,26,27,28,29,30,31,32,33,34,35,36,37,38,39,40,41,0,1,2,3,4,5,6,7,8,9,10,11,12,13,14,15,16,17,18,19,20,21,22,23,24,25,26,27,28,29,30,31,32,33,34,35,36,37,38,39,40,41,0,1,2,3,4,5,6,7,8,9,10,11,12,13,14,15,16,17,18,19,20,21,22,23,24,25,26,27,28,29,30,31,32,33,34,35,36,37,38,39,40,41,0,1,2,3,4,5,6,7,8,9,10,11,12,13,14,15,16,17,18,19,20,21,22,23,24,25,26,27,28,29,30,31,32,33,34,35,36,37,38,39,40,41,0,1,2,3,4,5,6,7,8,9,10,11,12,13,14,15,16,17,18,19,20,21,22,23,24,25,26,27,28,29,30,31,32,33,34,35,36,37,38,39,40,41,0,1,2,3,4,5,6,7,8,9,10,11,12,13,14,15,16,17,18,19,20,21,22,23,24,25,26,27,28,29,30,31,32,33,34,35,36,37,38,39,40,41,0,1,2,3,4,5,6,7,8,9,10,11,12,13,14,15,16,17,18,19,20,21,22,23,24,25,26,27,28,29,30,31,32,33,34,35,36,37,38,39,40,41,0,1,2,3,4,5,6,7,8,9,10,11,12,13,14,15,16,17,18,19,20,21,22,23,24,25,26,27,28,29,30,31,32,33,34,35,36,37,38,39,40,41,0,1,2,3,4,5,6,7,8,9,10,11,12,13,14,15,16,17,18,19,20,21,22,23,24,25,26,27,28,29,30,31,32,33,34,35,36,37,38,39,40,41,0,1,2,3,4,5,6,7,8,9,10,11,12,13,14,15,16,17,18,19,20,21,22,23,24,25,26,27,28,29,30,31,32,33,34,35,36,37,38,39,40,41,0,1,2,3,4,5,6,7,8,9,10,11,12,13,14,15,16,17,18,19,20,21,22,23,24,25,26,27,28,29,30,31,32,33,34,35,36,37,38,39,40,41,0,1,2,3,4,5,6,7,8,9,10,11,12,13,14,15,16,17,18,19,20,21,22,23,24,25,26,27,28,29,30,31,32,33,34,35,36,37,38,39,40,41,0,1,2,3,4,5,6,7,8,9,10,11,12,13,14,15,16,17,18,19,20,21,22,23,24,25,26,27,28,29,30,31,32,33,34,35,36,37,38,39,40,41,0,1,2,3,4,5,6,7,8,9,10,11,12,13,14,15,16,17,18,19,20,21,22,23,24,25,26,27,28,29,30,31,32,33,34,35,36,37,38,39,40,41,0,1,2,3,4,5,6,7,8,9,10,11,12,13,14,15,16,17,18,19,20,21,22,23,24,25,26,27,28,29,30,31,32,33,34,35,36,37,38,39,40,41,0,1,2,3,4,5,6,7,8,9,10,11,12,13,14,15,16,17,18,19,20,21,22,23,24,25,26,27,28,29,30,31,32,33,34,35,36,37,38,39,40,41,0,1,2,3,4,5,6,7,8,9,10,11,12,13,14,15,16,17,18,19,20,21,22,23,24,25,26,27,28,29,30,31,32,33,34,35,36,37,38,39,40,41,0,1,2,3,4,5,6,7,8,9,10,11,12,13,14,15,16,17,18,19,20,21,22,23,24,25,26,27,28,29,30,31,32,33,34,35,36,37,38,39,40,41,0,1,2,3,4,5,6,7,8,9,10,11,12,13,14,15,16,17,18,19,20,21,22,23,24,25,26,27,28,29,30,31,32,33,34,35,36,37,38,39,40,41,0,1,2,3,4,5,6,7,8,9,10,11,12,13,14,15,16,17,18,19,20,21,22,23,24,25,26,27,28,29,30,31,32,33,34,35,36,37,38,39,40,41,0,1,2,3,4,5,6,7,8,9,10,11,12,13,14,15,16,17,18,19,20,21,22,23,24,25,26,27,28,29,30,31,32,33,34,35,36,37,38,39,40,41,0,1,2,3,4,5,6,7,8,9,10,11,12,13,14,15,16,17,18,19,20,21,22,23,24,25,26,27,28,29,30,31,32,33,34,35,36,37,38,39,40,41,0,1,2,3,4,5,6,7,8,9,10,11,12,13,14,15,16,17,18,19,20,21,22,23,24,25,26,27,28,29,30,31,32,33,34,35,36,37,38,39,40,41,0,1,2,3,4,5,6,7,8,9,10,11,12,13,14,15,16,17,18,19,20,21,22,23,24,25,26,27,28,29,30,31,32,33,34,35,36,37,38,39,40,41,0,1,2,3,4,5,6,7,8,9,10,11,12,13,14,15,16,17,18,19,20,21,22,23,24,25,26,27,28,29,30,31,32,33,34,35,36,37,38,39,40,41,0,1,2,3,4,5,6,7,8,9,10,11,12,13,14,15,16,17,18,19,20,21,22,23,24,25,26,27,28,29,30,31,32,33,34,35,36,37,38,39,40,41,0,1,2,3,4,5,6,7,8,9,10,11,12,13,14,15,16,17,18,19,20,21,22,23,24,25,26,27,28,29,30,31,32,33,34,35,36,37,38,39,40,41,0,1,2,3,4,5,6,7,8,9,10,11,12,13,14,15,16,17,18,19,20,21,22,23,24,25,26,27,28,29,30,31,32,33,34,35,36,37,38,39,40,41,0,1,2,3,4,5,6,7,8,9,10,11,12,13,14,15,16,17,18,19,20,21,22,23,24,25,26,27,28,29,30,31,32,33,34,35,36,37,38,39,40,41,0,1,2,3,4,5,6,7,8,9,10,11,12,13,14,15,16,17,18,19,20,21,22,23,24,25,26,27,28,29,30,31,32,33,34,35,36,37,38,39,40,41,0,1,2,3,4,5,6,7,8,9,10,11,12,13,14,15,16,17,18,19,20,21,22,23,24,25,26,27,28,29,30,31,32,33,34,35,36,37,38,39,40,41,0,1,2,3,4,5,6,7,8,9,10,11,12,13,14,15,16,17,18,19,20,21,22,23,24,25,26,27,28,29,30,31,32,33,34,35,36,37,38,39,40,41,0,1,2,3,4,5,6,7,8,9,10,11,12,13,14,15,16,17,18,19,20,21,22,23,24,25,26,27,28,29,30,31,32,33,34,35,36,37,38,39,40,41,0,1,2,3,4,5,6,7,8,9,10,11,12,13,14,15,16,17,18,19,20,21,22,23,24,25,26,27,28,29,30,31,32,33,34,35,36,37,38,39,40,41,0,1,2,3,4,5,6,7,8,9,10,11,12,13,14,15,16,17,18,19,20,21,22,23,24,25,26,27,28,29,30,31,32,33,34,35,36,37,38,39,40,41,0,1,2,3,4,5,6,7,8,9,10,11,12,13,14,15,16,17,18,19,20,21,22,23,24,25,26,27,28,29,30,31,32,33,34,35,36,37,38,39,40,41,0,1,2,3,4,5,6,7,8,9,10,11,12,13,14,15,16,17,18,19,20,21,22,23,24,25,26,27,28,29,30,31,32,33,34,35,36,37,38,39,40,41,0,1,2,3,4,5,6,7,8,9,10,11,12,13,14,15,16,17,18,19,20,21,22,23,24,25,26,27,28,29,30,31,32,33,34,35,36,37,38,39,40,41,0,1,2,3,4,5,6,7,8,9,10,11,12,13,14,15,16,17,18,19,20,21,22,23,24,25,26,27,28,29,30,31,32,33,34,35,36,37,38,39,40,41,0,1,2,3,4,5,6,7,8,9,10,11,12,13,14,15,16,17,18,19,20,21,22,23,24,25,26,27,28,29,30,31,32,33,34,35,36,37,38,39,40,41,0,1,2,3,4,5,6,7,8,9,10,11,12,13,14,15,16,17,18,19,20,21,22,23,24,25,26,27,28,29,30,31,32,33,34,35,36,37,38,39,40,41,0,1,2,3,4,5,6,7,8,9,10,11,12,13,14,15,16,17,18,19,20,21,22,23,24,25,26,27,28,29,30,31,32,33,34,35,36,37,38,39,40,41,0,1,2,3,4,5,6,7,8,9,10,11,12,13,14,15,16,17,18,19,20,21,22,23,24,25,26,27,28,29,30,31,32,33,34,35,36,37,38,39,40,41,0,1,2,3,4,5,6,7,8,9,10,11,12,13,14,15,16,17,18,19,20,21,22,23,24,25,26,27,28,29,30,31,32,33,34,35,36,37,38,39,40,41,0,1,2,3,4,5,6,7,8,9,10,11,12,13,14,15,16,17,18,19,20,21,22,23,24,25,26,27,28,29,30,31,32,33,34,35,36,37,38,39,40,41,0,1,2,3,4,5,6,7,8,9,10,11,12,13,14,15,16,17,18,19,20,21,22,23,24,25,26,27,28,29,30,31,32,33,34,35,36,37,38,39,40,41,0,1,2,3,4,5,6,7,8,9,10,11,12,13,14,15,16,17,18,19,20,21,22,23,24,25,26,27,28,29,30,31,32,33,34,35,36,37,38,39,40,41,0,1,2,3,4,5,6,7,8,9,10,11,12,13,14,15,16,17,18,19,20,21,22,23,24,25,26,27,28,29,30,31,32,33,34,35,36,37,38,39,40,41,0,1,2,3,4,5,6,7,8,9,10,11,12,13,14,15,16,17,18,19,20,21,22,23,24,25,26,27,28,29,30,31,32,33,34,35,36,37,38,39,40,41,0,1,2,3,4,5,6,7,8,9,10,11,12,13,14,15,16,17,18,19,20,21,22,23,24,25,26,27,28,29,30,31,32,33,34,35,36,37,38,39,40,41,0,1,2,3,4,5,6,7,8,9,10,11,12,13,14,15,16,17,18,19,20,21,22,23,24,25,26,27,28,29,30,31,32,33,34,35,36,37,38,39,40,41,0,1,2,3,4,5,6,7,8,9,10,11,12,13,14,15,16,17,18,19,20,21,22,23,24,25,26,27,28,29,30,31,32,33,34,35,36,37,38,39,40,41,0,1,2,3,4,5,6,7,8,9,10,11,12,13,14,15,16,17,18,19,20,21,22,23,24,25,26,27,28,29,30,31,32,33,34,35,36,37,38,39,40,41,0,1,2,3,4,5,6,7,8,9,10,11,12,13,14,15,16,17,18,19,20,21,22,23,24,25,26,27,28,29,30,31,32,33,34,35,36,37,38,39,40,41,0,1,2,3,4,5,6,7,8,9,10,11,12,13,14,15,16,17,18,19,20,21,22,23,24,25,26,27,28,29,30,31,32,33,34,35,36,37,38,39,40,41,0,1,2,3,4,5,6,7,8,9,10,11,12,13,14,15,16,17,18,19,20,21,22,23,24,25,26,27,28,29,30,31,32,33,34,35,36,37,38,39,40,41,0,1,2,3,4,5,6,7,8,9,10,11,12,13,14,15,16,17,18,19,20,21,22,23,24,25,26,27,28,29,30,31,32,33,34,35,36,37,38,39,40,41,0,1,2,3,4,5,6,7,8,9,10,11,12,13,14,15,16,17,18,19,20,21,22,23,24,25,26,27,28,29,30,31,32,33,34,35,36,37,38,39,40,41,0,1,2,3,4,5,6,7,8,9,10,11,12,13,14,15,16,17,18,19,20,21,22,23,24,25,26,27,28,29,30,31,32,33,34,35,36,37,38,39,40,41,0,1,2,3,4,5,6,7,8,9,10,11,12,13,14,15,16,17,18,19,20,21,22,23,24,25,26,27,28,29,30,31,32,33,34,35,36,37,38,39,40,41,0,1,2,3,4,5,6,7,8,9,10,11,12,13,14,15,16,17,18,19,20,21,22,23,24,25,26,27,28,29,30,31,32,33,34,35,36,37,38,39,40,41,0,1,2,3,4,5,6,7,8,9,10,11,12,13,14,15,16,17,18,19,20,21,22,23,24,25,26,27,28,29,30,31,32,33,34,35,36,37,38,39,40,41,0,1,2,3,4,5,6,7,8,9,10,11,12,13,14,15,16,17,18,19,20,21,22,23,24,25,26,27,28,29,30,31,32,33,34,35,36,37,38,39,40,41,0,1,2,3,4,5,6,7,8,9,10,11,12,13,14,15,16,17,18,19,20,21,22,23,24,25,26,27,28,29,30,31,32,33,34,35,36,37,38,39,40,41,0,1,2,3,4,5,6,7,8,9,10,11,12,13,14,15,16,17,18,19,20,21,22,23,24,25,26,27,28,29,30,31,32,33,34,35,36,37,38,39,40,41,0,1,2,3,4,5,6,7,8,9,10,11,12,13,14,15,16,17,18,19,20,21,22,23,24,25,26,27,28,29,30,31,32,33,34,35,36,37,38,39,40,41,0,1,2,3,4,5,6,7,8,9,10,11,12,13,14,15,16,17,18,19,20,21,22,23,24,25,26,27,28,29,30,31,32,33,34,35,36,37,38,39,40,41,0,1,2,3,4,5,6,7,8,9,10,11,12,13,14,15,16,17,18,19,20,21,22,23,24,25,26,27,28,29,30,31,32,33,34,35,36,37,38,39,40,41,0,1,2,3,4,5,6,7,8,9,10,11,12,13,14,15,16,17,18,19,20,21,22,23,24,25,26,27,28,29,30,31,32,33,34,35,36,37,38,39,40,41,0,1,2,3,4,5,6,7,8,9,10,11,12,13,14,15,16,17,18,19,20,21,22,23,24,25,26,27,28,29,30,31,32,33,34,35,36,37,38,39,40,41,0,1,2,3,4,5,6,7,8,9,10,11,12,13,14,15,16,17,18,19,20,21,22,23,24,25,26,27,28,29,30,31,32,33,34,35,36,37,38,39,40,41,0,1,2,3,4,5,6,7,8,9,10,11,12,13,14,15,16,17,18,19,20,21,22,23,24,25,26,27,28,29,30,31,32,33,34,35,36,37,38,39,40,41,0,1,2,3,4,5,6,7,8,9,10,11,12,13,14,15,16,17,18,19,20,21,22,23,24,25,26,27,28,29,30,31,32,33,34,35,36,37,38,39,40,41,0,1,2,3,4,5,6,7,8,9,10,11,12,13,14,15,16,17,18,19,20,21,22,23,24,25,26,27,28,29,30,31,32,33,34,35,36,37,38,39,40,41,0,1,2,3,4,5,6,7,8,9,10,11,12,13,14,15,16,17,18,19,20,21,22,23,24,25,26,27,28,29,30,31,32,33,34,35,36,37,38,39,40,41,0,1,2,3,4,5,6,7,8,9,10,11,12,13,14,15,16,17,18,19,20,21,22,23,24,25,26,27,28,29,30,31,32,33,34,35,36,37,38,39,40,41,0,1,2,3,4,5,6,7,8,9,10,11,12,13,14,15,16,17,18,19,20,21,22,23,24,25,26,27,28,29,30,31,32,33,34,35,36,37,38,39,40,41,0,1,2,3,4,5,6,7,8,9,10,11,12,13,14,15,16,17,18,19,20,21,22,23,24,25,26,27,28,29,30,31,32,33,34,35,36,37,38,39,40,41,0,1,2,3,4,5,6,7,8,9,10,11,12,13,14,15,16,17,18,19,20,21,22,23,24,25,26,27,28,29,30,31,32,33,34,35,36,37,38,39,40,41,0,1,2,3,4,5,6,7,8,9,10,11,12,13,14,15,16,17,18,19,20,21,22,23,24,25,26,27,28,29,30,31,32,33,34,35,36,37,38,39,40,41,0,1,2,3,4,5,6,7,8,9,10,11,12,13,14,15,16,17,18,19,20,21,22,23,24,25,26,27,28,29,30,31,32,33,34,35,36,37,38,39,40,41,0,1,2,3,4,5,6,7,8,9,10,11,12,13,14,15,16,17,18,19,20,21,22,23,24,25,26,27,28,29,30,31,32,33,34,35,36,37,38,39,40,41,0,1,2,3,4,5,6,7,8,9,10,11,12,13,14,15,16,17,18,19,20,21,22,23,24,25,26,27,28,29,30,31,32,33,34,35,36,37,38,39,40,41,0,1,2,3,4,5,6,7,8,9,10,11,12,13,14,15,16,17,18,19,20,21,22,23,24,25,26,27,28,29,30,31,32,33,34,35,36,37,38,39,40,41,0,1,2,3,4,5,6,7,8,9,10,11,12,13,14,15,16,17,18,19,20,21,22,23,24,25,26,27,28,29,30,31,32,33,34,35,36,37,38,39,40,41,0,1,2,3,4,5,6,7,8,9,10,11,12,13,14,15,16,17,18,19,20,21,22,23,24,25,26,27,28,29,30,31,32,33,34,35,36,37,38,39,40,41,0,1,2,3,4,5,6,7,8,9,10,11,12,13,14,15,16,17,18,19,20,21,22,23,24,25,26,27,28,29,30,31,32,33,34,35,36,37,38,39,40,41,0,1,2,3,4,5,6,7,8,9,10,11,12,13,14,15,16,17,18,19,20,21,22,23,24,25,26,27,28,29,30,31,32,33,34,35,36,37,38,39,40,41,0,1,2,3,4,5,6,7,8,9,10,11,12,13,14,15,16,17,18,19,20,21,22,23,24,25,26,27,28,29,30,31,32,33,34,35,36,37,38,39,40,41,0,1,2,3,4,5,6,7,8,9,10,11,12,13,14,15,16,17,18,19,20,21,22,23,24,25,26,27,28,29,30,31,32,33,34,35,36,37,38,39,40,41,0,1,2,3,4,5,6,7,8,9,10,11,12,13,14,15,16,17,18,19,20,21,22,23,24,25,26,27,28,29,30,31,32,33,34,35,36,37,38,39,40,41,0,1,2,3,4,5,6,7,8,9,10,11,12,13,14,15,16,17,18,19,20,21,22,23,24,25,26,27,28,29,30,31,32,33,34,35,36,37,38,39,40,41,0,1,2,3,4,5,6,7,8,9,10,11,12,13,14,15,16,17,18,19,20,21,22,23,24,25,26,27,28,29,30,31,32,33,34,35,36,37,38,39,40,41,0,1,2,3,4,5,6,7,8,9,10,11,12,13,14,15,16,17,18,19,20,21,22,23,24,25,26,27,28,29,30,31,32,33,34,35,36,37,38,39,40,41,0,1,2,3,4,5,6,7,8,9,10,11,12,13,14,15,16,17,18,19,20,21,22,23,24,25,26,27,28,29,30,31,32,33,34,35,36,37,38,39,40,41,0,1,2,3,4,5,6,7,8,9,10,11,12,13,14,15,16,17,18,19,20,21,22,23,24,25,26,27,28,29,30,31,32,33,34,35,36,37,38,39,40,41],"trees":[{"base_weights":[-1.5468921E-1,-1.03226624E-1,2.470588E-1,3.1357467E-1,-1.0807266E-1],"categories":[],"categories_nodes":[],"categories_segments":[],"categories_sizes":[],"default_left":[0,0,0,0,0],"id":0,"left_children":[1,-1,3,-1,-1],"loss_changes":[1.0453773E0,0E0,2.6188846E0,0E0,0E0],"parents":[2147483647,0,0,2,2],"right_children":[2,-1,4,-1,-1],"split_conditions":[1E0,-1.03226624E-1,1E0,3.1357467E-1,-1.0807266E-1],"split_indices":[45,0,41,0,0],"split_type":[0,0,0,0,0],"sum_hessian":[1.1621315E1,7.995465E0,3.6258502E0,1.255102E0,2.3707483E0],"tree_param":{"num_deleted":"0","num_feature":"133","num_nodes":"5","size_leaf_vector":"1"}},{"base_weights":[-1.5468921E-1,-1.127416E-1,2.6214767E-1],"categories":[],"categories_nodes":[],"categories_segments":[],"categories_sizes":[],"default_left":[0,0,0],"id":1,"left_children":[1,-1,-1],"loss_changes":[3.1987426E0,0E0,0E0],"parents":[2147483647,0,0],"right_children":[2,-1,-1],"split_conditions":[1E0,-1.127416E-1,2.6214767E-1],"split_indices":[101,0,0],"split_type":[0,0,0],"sum_hessian":[1.1621315E1,1.0087301E1,1.5340136E0],"tree_param":{"num_deleted":"0","num_feature":"133","num_nodes":"3","size_leaf_vector":"1"}},{"base_weights":[3.7728848E-3,-3.679429E-1,1.2442197E0,-1.3293579E-1,-1.4046824E-1,6.639013E-1,-8.1028946E-2,2.8714674E-2,-9.4112486E-2],"categories":[],"categories_nodes":[],"categories_segments":[],"categories_sizes":[],"default_left":[0,0,0,0,0,0,0,0,0],"id":2,"left_children":[1,3,5,-1,7,-1,-1,-1,-1],"loss_changes":[6.27741E0,1.17022395E-1,5.201788E0,0E0,1.9647613E-1,0E0,0E0,0E0,0E0],"parents":[2147483647,0,0,1,1,2,2,4,4],"right_children":[2,4,6,-1,8,-1,-1,-1,-1],"split_conditions":[1E0,1E0,1E0,-1.3293579E-1,1E0,6.639013E-1,-8.1028946E-2,2.8714674E-2,-9.4112486E-2],"split_indices":[132,123,72,0,72,0,0,0,0],"split_type":[0,0,0,0,0,0,0,0,0],"sum_hessian":[1.1621315E1,9.482993E0,2.1383219E0,6.414966E0,3.0680273E0,1.0226758E0,1.1156462E0,1.4875283E0,1.5804988E0],"tree_param":{"num_deleted":"0","num_feature":"133","num_nodes":"9","size_leaf_vector":"1"}},{"base_weights":[-1.5468921E-1,-1.1132156E-1,2.0893484E-1],"categories":[],"categories_nodes":[],"categories_segments":[],"categories_sizes":[],"default_left":[0,0,0],"id":3,"left_children":[1,-1,-1],"loss_changes":[2.5829213E0,0E0,0E0],"parents":[2147483647,0,0],"right_children":[2,-1,-1],"split_conditions":[1E0,-1.1132156E-1,2.0893484E-1],"split_indices":[19,0,0],"split_type":[0,0,0],"sum_hessian":[1.1621315E1,9.71542E0,1.9058957E0],"tree_param":{"num_deleted":"0","num_feature":"133","num_nodes":"3","size_leaf_vector":"1"}},{"base_weights":[3.7728848E-3,3.291343E-1,-1.2753037E-1,2.1335463E-1,-1.0869278E-1],"categories":[],"categories_nodes":[],"categories_segments":[],"categories_sizes":[],"default_left":[0,0,0,0,0],"id":4,"left_children":[1,3,-1,-1,-1],"loss_changes":[1.9010822E0,2.3023968E0,0E0,0E0,0E0],"parents":[2147483647,0,0,1,1],"right_children":[2,4,-1,-1,-1],"split_conditions":[1E0,1E0,-1.2753037E-1,2.1335463E-1,-1.0869278E-1],"split_indices":[41,123,0,0,0],"split_type":[0,0,0,0,0],"sum_hessian":[1.1621315E1,6.7403626E0,4.8809524E0,4.323129E0,2.4172335E0],"tree_param":{"num_deleted":"0","num_feature":"133","num_nodes":"5","size_leaf_vector":"1"}},{"base_weights":[-7.545816E-2,-1.3950284E-1,4.4409838E-1],"categories":[],"categories_nodes":[],"categories_segments":[],"categories_sizes":[],"default_left":[0,0,0],"id":5,"left_children":[1,-1,-1],"loss_changes":[8.33762E0,0E0,0E0],"parents":[2147483647,0,0],"right_children":[2,-1,-1],"split_conditions":[1E0,-1.3950284E-1,4.4409838E-1],"split_indices":[26,0,0],"split_type":[0,0,0],"sum_hessian":[1.1621315E1,9.854876E0,1.7664399E0],"tree_param":{"num_deleted":"0","num_feature":"133","num_nodes":"3","size_leaf_vector":"1"}},{"base_weights":[-7.545816E-2,1.9994138E-1,-1.2753037E-1,1.569968E-1,-1.0869278E-1],"categories":[],"categories_nodes":[],"categories_segments":[],"categories_sizes":[],"default_left":[0,0,0,0,0],"id":6,"left_children":[1,3,-1,-1,-1],"loss_changes":[1.3003212E0,1.5969676E0,0E0,0E0,0E0],"parents":[2147483647,0,0,1,1],"right_children":[2,4,-1,-1,-1],"split_conditions":[1E0,1E0,-1.2753037E-1,1.569968E-1,-1.0869278E-1],"split_indices":[41,123,0,0,0],"split_type":[0,0,0,0,0],"sum_hessian":[1.1621315E1,6.7403626E0,4.8809524E0,4.323129E0,2.4172335E0],"tree_param":{"num_deleted":"0","num_feature":"133","num_nodes":"5","size_leaf_vector":"1"}},{"base_weights":[3.7728848E-3,-1.3991483E-1,6.4667904E-1],"categories":[],"categories_nodes":[],"categories_segments":[],"categories_sizes":[],"default_left":[0,0,0],"id":7,"left_children":[1,-1,-1],"loss_changes":[1.3774218E1,0E0,0E0],"parents":[2147483647,0,0],"right_children":[2,-1,-1],"split_conditions":[1E0,-1.3991483E-1,6.4667904E-1],"split_indices":[55,0,0],"split_type":[0,0,0],"sum_hessian":[1.1621315E1,1.0180272E1,1.441043E0],"tree_param":{"num_deleted":"0","num_feature":"133","num_nodes":"3","size_leaf_vector":"1"}},{"base_weights":[3.7728848E-3,-1.3912952E-1,4.87863E-1],"categories":[],"categories_nodes":[],"categories_segments":[],"categories_sizes":[],"default_left":[0,0,0],"id":8,"left_children":[1,-1,-1],"loss_changes":[1.0328089E1,0E0,0E0],"parents":[2147483647,0,0],"right_children":[2,-1,-1],"split_conditions":[1E0,-1.3912952E-1,4.87863E-1],"split_indices":[131,0,0],"split_type":[0,0,0],"sum_hessian":[1.1621315E1,9.575964E0,2.0453515E0],"tree_param":{"num_deleted":"0","num_feature":"133","num_nodes":"3","size_leaf_vector":"1"}},{"base_weights":[1.6223498E-1,-1.3991483E-1,8.924756E-1],"categories":[],"categories_nodes":[],"categories_segments":[],"categories_sizes":[],"default_left":[0,0,0],"id":9,"left_children":[1,-1,-1],"loss_changes":[2.3703232E1,0E0,0E0],"parents":[2147483647,0,0],"right_children":[2,-1,-1],"split_conditions":[1E0,-1.3991483E-1,8.924756E-1],"split_indices":[69,0,0],"split_type":[0,0,0],"sum_hessian":[1.1621315E1,1.0180272E1,1.441043E0],"tree_param":{"num_deleted":"0","num_feature":"133","num_nodes":"3","size_leaf_vector":"1"}},{"base_weights":[2.4146602E-1,-1.3950284E-1,8.778689E-1],"categories":[],"categories_nodes":[],"categories_segments":[],"categories_sizes":[],"default_left":[0,0,0],"id":10,"left_children":[1,-1,-1],"loss_changes":[2.5299816E1,0E0,0E0],"parents":[2147483647,0,0],"right_children":[2,-1,-1],"split_conditions":[1E0,-1.3950284E-1,8.778689E-1],"split_indices":[26,0,0],"split_type":[0,0,0],"sum_hessian":[1.1621315E1,9.854876E0,1.7664399E0],"tree_param":{"num_deleted":"0","num_feature":"133","num_nodes":"3","size_leaf_vector":"1"}},{"base_weights":[2.4146602E-1,-3.7693948E-1,8.924756E-1,-1.3824901E-1,5.1745374E-2],"categories":[],"categories_nodes":[],"categories_segments":[],"categories_sizes":[],"default_left":[0,0,0,0,0],"id":11,"left_children":[1,3,-1,-1,-1],"loss_changes":[2.2456207E1,5.9480166E-1,0E0,0E0,0E0],"parents":[2147483647,0,0,1,1],"right_children":[2,4,-1,-1,-1],"split_conditions":[1E0,1E0,8.924756E-1,-1.3824901E-1,5.1745374E-2],"split_indices":[69,64,0,0,0],"split_type":[0,0,0,0,0],"sum_hessian":[1.1621315E1,1.0180272E1,1.441043E0,8.971655E0,1.2086167E0],"tree_param":{"num_deleted":"0","num_feature":"133","num_nodes":"5","size_leaf_vector":"1"}},{"base_weights":[-7.545816E-2,-3.8129357E-1,5.0054795E-1,-1.3368702E-1,-2.009335E-1,1.603053E-2,-1.0541119E-1],"categories":[],"categories_nodes":[],"categories_segments":[],"categories_sizes":[],"default_left":[0,0,0,0,0,0,0],"id":12,"left_children":[1,3,-1,-1,5,-1,-1],"loss_changes":[7.367916E0,4.4493437E-2,0E0,0E0,2.0468463E-1,0E0,0E0],"parents":[2147483647,0,0,1,1,4,4],"right_children":[2,4,-1,-1,6,-1,-1],"split_conditions":[1E0,1E0,5.0054795E-1,-1.3368702E-1,1E0,1.603053E-2,-1.0541119E-1],"split_indices":[59,41,0,0,45,0,0],"split_type":[0,0,0,0,0,0,0],"sum_hessian":[1.1621315E1,1.0552154E1,1.0691609E0,6.693877E0,3.8582766E0,1.6734693E0,2.1848073E0],"tree_param":{"num_deleted":"0","num_feature":"133","num_nodes":"7","size_leaf_vector":"1"}},{"base_weights":[3.7728848E-3,3.291343E-1,-1.2753037E-1,2.1335463E-1,-1.0869278E-1],"categories":[],"categories_nodes":[],"categories_segments":[],"categories_sizes":[],"default_left":[0,0,0,0,0],"id":13,"left_children":[1,3,-1,-1,-1],"loss_changes":[1.9010822E0,2.3023968E0,0E0,0E0,0E0],"parents":[2147483647,0,0,1,1],"right_children":[2,4,-1,-1,-1],"split_conditions":[1E0,1E0,-1.2753037E-1,2.1335463E-1,-1.0869278E-1],"split_indices":[41,123,0,0,0],"split_type":[0,0,0,0,0],"sum_hessian":[1.1621315E1,6.7403626E0,4.8809524E0,4.323129E0,2.4172335E0],"tree_param":{"num_deleted":"0","num_feature":"133","num_nodes":"5","size_leaf_vector":"1"}},{"base_weights":[-7.545816E-2,-3.7693948E-1,4.008825E-1,-1.3846155E-1,6.558904E-2],"categories":[],"categories_nodes":[],"categories_segments":[],"categories_sizes":[],"default_left":[0,0,0,0,0],"id":14,"left_children":[1,3,-1,-1,-1],"loss_changes":[5.875467E0,6.6421986E-1,0E0,0E0,0E0],"parents":[2147483647,0,0,1,1],"right_children":[2,4,-1,-1,-1],"split_conditions":[1E0,1E0,4.008825E-1,-1.3846155E-1,6.558904E-2],"split_indices":[55,101,0,0,0],"split_type":[0,0,0,0,0],"sum_hessian":[1.1621315E1,1.0180272E1,1.441043E0,9.111111E0,1.0691609E0],"tree_param":{"num_deleted":"0","num_feature":"133","num_nodes":"5","size_leaf_vector":"1"}},{"base_weights":[-1.5468921E-1,-3.7693948E-1,2.779842E-1,-1.3846155E-1,6.558904E-2],"categories":[],"categories_nodes":[],"categories_segments":[],"categories_sizes":[],"default_left":[0,0,0,0,0],"id":15,"left_children":[1,3,-1,-1,-1],"loss_changes":[3.3824308E0,6.6421986E-1,0E0,0E0,0E0],"parents":[2147483647,0,0,1,1],"right_children":[2,4,-1,-1,-1],"split_conditions":[1E0,1E0,2.779842E-1,-1.3846155E-1,6.558904E-2],"split_indices":[55,101,0,0,0],"split_type":[0,0,0,0,0],"sum_hessian":[1.1621315E1,1.0180272E1,1.441043E0,9.111111E0,1.0691609E0],"tree_param":{"num_deleted":"0","num_feature":"133","num_nodes":"5","size_leaf_vector":"1"}},{"base_weights":[-7.545816E-2,-1.3950284E-1,4.4409838E-1],"categories":[],"categories_nodes":[],"categories_segments":[],"categories_sizes":[],"default_left":[0,0,0],"id":16,"left_children":[1,-1,-1],"loss_changes":[8.33762E0,0E0,0E0],"parents":[2147483647,0,0],"right_children":[2,-1,-1],"split_conditions":[1E0,-1.3950284E-1,4.4409838E-1],"split_indices":[26,0,0],"split_type":[0,0,0],"sum_hessian":[1.1621315E1,9.854876E0,1.7664399E0],"tree_param":{"num_deleted":"0","num_feature":"133","num_nodes":"3","size_leaf_vector":"1"}},{"base_weights":[-1.5468921E-1,-1.4013965E-1,4.4660634E-1],"categories":[],"categories_nodes":[],"categories_segments":[],"categories_sizes":[],"default_left":[0,0,0],"id":17,"left_children":[1,-1,-1],"loss_changes":[7.1759744E0,0E0,0E0],"parents":[2147483647,0,0],"right_children":[2,-1,-1],"split_conditions":[1E0,-1.4013965E-1,4.4660634E-1],"split_indices":[31,0,0],"split_type":[0,0,0],"sum_hessian":[1.1621315E1,1.0366213E1,1.255102E0],"tree_param":{"num_deleted":"0","num_feature":"133","num_nodes":"3","size_leaf_vector":"1"}},{"base_weights":[-7.545816E-2,-3.7523106E-1,3.709139E-1,-1.3240278E-1,-1.979265E-1,2.8714674E-2,-1.07435204E-1],"categories":[],"categories_nodes":[],"categories_segments":[],"categories_sizes":[],"default_left":[0,0,0,0,0,0,0],"id":18,"left_children":[1,3,-1,-1,5,-1,-1],"loss_changes":[5.427303E0,4.206562E-2,0E0,0E0,2.6061812E-1,0E0,0E0],"parents":[2147483647,0,0,1,1,4,4],"right_children":[2,4,-1,-1,6,-1,-1],"split_conditions":[1E0,1E0,3.709139E-1,-1.3240278E-1,1E0,2.8714674E-2,-1.07435204E-1],"split_indices":[18,123,0,0,72,0,0],"split_type":[0,0,0,0,0,0,0],"sum_hessian":[1.1621315E1,1.0040816E1,1.5804988E0,6.229025E0,3.8117914E0,1.4875283E0,2.324263E0],"tree_param":{"num_deleted":"0","num_feature":"133","num_nodes":"7","size_leaf_vector":"1"}},{"base_weights":[1.6223498E-1,-1.3991483E-1,8.924756E-1],"categories":[],"categories_nodes":[],"categories_segments":[],"categories_sizes":[],"default_left":[0,0,0],"id":19,"left_children":[1,-1,-1],"loss_changes":[2.3703232E1,0E0,0E0],"parents":[2147483647,0,0],"right_children":[2,-1,-1],"split_conditions":[1E0,-1.3991483E-1,8.924756E-1],"split_indices":[69,0,0],"split_type":[0,0,0],"sum_hessian":[1.1621315E1,1.0180272E1,1.441043E0],"tree_param":{"num_deleted":"0","num_feature":"133","num_nodes":"3","size_leaf_vector":"1"}},{"base_weights":[8.300393E-2,-1.4035726E-1,9.355068E-1],"categories":[],"categories_nodes":[],"categories_segments":[],"categories_sizes":[],"default_left":[0,0,0],"id":20,"left_children":[1,-1,-1],"loss_changes":[2.2562523E1,0E0,0E0],"parents":[2147483647,0,0],"right_children":[2,-1,-1],"split_conditions":[1E0,-1.4035726E-1,9.355068E-1],"split_indices":[59,0,0],"split_type":[0,0,0],"sum_hessian":[1.1621315E1,1.0552154E1,1.0691609E0],"tree_param":{"num_deleted":"0","num_feature":"133","num_nodes":"3","size_leaf_vector":"1"}},{"base_weights":[3.7728848E-3,-1.3900065E-1,1.5628612E0,7.06278E-2,6.279743E-1],"categories":[],"categories_nodes":[],"categories_segments":[],"categories_sizes":[],"default_left":[0,0,0,0,0],"id":21,"left_children":[1,-1,3,-1,-1],"loss_changes":[9.91577E0,0E0,1.7167406E0,0E0,0E0],"parents":[2147483647,0,0,2,2],"right_children":[2,-1,4,-1,-1],"split_conditions":[1E0,-1.3900065E-1,1E0,7.06278E-2,6.279743E-1],"split_indices":[132,0,72,0,0],"split_type":[0,0,0,0,0],"sum_hessian":[1.1621315E1,9.482993E0,2.1383219E0,1.0226758E0,1.1156462E0],"tree_param":{"num_deleted":"0","num_feature":"133","num_nodes":"5","size_leaf_vector":"1"}},{"base_weights":[3.7728848E-3,-1.3991483E-1,6.4667904E-1],"categories":[],"categories_nodes":[],"categories_segments":[],"categories_sizes":[],"default_left":[0,0,0],"id":22,"left_children":[1,-1,-1],"loss_changes":[1.3774218E1,0E0,0E0],"parents":[2147483647,0,0],"right_children":[2,-1,-1],"split_conditions":[1E0,-1.3991483E-1,6.4667904E-1],"split_indices":[28,0,0],"split_type":[0,0,0],"sum_hessian":[1.1621315E1,1.0180272E1,1.441043E0],"tree_param":{"num_deleted":"0","num_feature":"133","num_nodes":"3","size_leaf_vector":"1"}},{"base_weights":[3.7728848E-3,-1.3912952E-1,4.87863E-1],"categories":[],"categories_nodes":[],"categories_segments":[],"categories_sizes":[],"default_left":[0,0,0],"id":23,"left_children":[1,-1,-1],"loss_changes":[1.0328089E1,0E0,0E0],"parents":[2147483647,0,0],"right_children":[2,-1,-1],"split_conditions":[1E0,-1.3912952E-1,4.87863E-1],"split_indices":[131,0,0],"split_type":[0,0,0],"sum_hessian":[1.1621315E1,9.575964E0,2.0453515E0],"tree_param":{"num_deleted":"0","num_feature":"133","num_nodes":"3","size_leaf_vector":"1"}},{"base_weights":[-7.545816E-2,-1.3974123E-1,4.8717046E-1],"categories":[],"categories_nodes":[],"categories_segments":[],"categories_sizes":[],"default_left":[0,0,0],"id":24,"left_children":[1,-1,-1],"loss_changes":[9.128619E0,0E0,0E0],"parents":[2147483647,0,0],"right_children":[2,-1,-1],"split_conditions":[1E0,-1.3974123E-1,4.8717046E-1],"split_indices":[18,0,0],"split_type":[0,0,0],"sum_hessian":[1.1621315E1,1.0040816E1,1.5804988E0],"tree_param":{"num_deleted":"0","num_feature":"133","num_nodes":"3","size_leaf_vector":"1"}},{"base_weights":[3.7728848E-3,-1.4030352E-1,7.697749E-1],"categories":[],"categories_nodes":[],"categories_segments":[],"categories_sizes":[],"default_left":[0,0,0],"id":25,"left_children":[1,-1,-1],"loss_changes":[1.6445635E1,0E0,0E0],"parents":[2147483647,0,0],"right_children":[2,-1,-1],"split_conditions":[1E0,-1.4030352E-1,7.697749E-1],"split_indices":[128,0,0],"split_type":[0,0,0],"sum_hessian":[1.1621315E1,1.0505669E1,1.1156462E0],"tree_param":{"num_deleted":"0","num_feature":"133","num_nodes":"3","size_leaf_vector":"1"}},{"base_weights":[1.6223498E-1,-1.4030352E-1,1.0533762E0],"categories":[],"categories_nodes":[],"categories_segments":[],"categories_sizes":[],"default_left":[0,0,0],"id":26,"left_children":[1,-1,-1],"loss_changes":[2.826796E1,0E0,0E0],"parents":[2147483647,0,0],"right_children":[2,-1,-1],"split_conditions":[1E0,-1.4030352E-1,1.0533762E0],"split_indices":[37,0,0],"split_type":[0,0,0],"sum_hessian":[1.1621315E1,1.0505669E1,1.1156462E0],"tree_param":{"num_deleted":"0","num_feature":"133","num_nodes":"3","size_leaf_vector":"1"}},{"base_weights":[1.6223498E-1,-1.4008415E-1,9.558621E-1],"categories":[],"categories_nodes":[],"categories_segments":[],"categories_sizes":[],"default_left":[0,0,0],"id":27,"left_children":[1,-1,-1],"loss_changes":[2.5501469E1,0E0,0E0],"parents":[2147483647,0,0],"right_children":[2,-1,-1],"split_conditions":[1E0,-1.4008415E-1,9.558621E-1],"split_indices":[53,0,0],"split_type":[0,0,0],"sum_hessian":[1.1621315E1,1.0319728E1,1.3015873E0],"tree_param":{"num_deleted":"0","num_feature":"133","num_nodes":"3","size_leaf_vector":"1"}},{"base_weights":[-7.545816E-2,-3.7580532E-1,3.805369E-1,-1.3482492E-1,-1.2727274E-1,6.558904E-2,-9.9920705E-2],"categories":[],"categories_nodes":[],"categories_segments":[],"categories_sizes":[],"default_left":[0,0,0,0,0,0,0],"id":28,"left_children":[1,3,-1,-1,5,-1,-1],"loss_changes":[5.5711713E0,1.4564073E-1,0E0,0E0,3.524763E-1,0E0,0E0],"parents":[2147483647,0,0,1,1,4,4],"right_children":[2,4,-1,-1,6,-1,-1],"split_conditions":[1E0,1E0,3.805369E-1,-1.3482492E-1,1E0,6.558904E-2,-9.9920705E-2],"split_indices":[101,45,0,0,41,0,0],"split_type":[0,0,0,0,0,0,0],"sum_hessian":[1.1621315E1,1.0087301E1,1.5340136E0,7.15873E0,2.9285715E0,1.0691609E0,1.8594104E0],"tree_param":{"num_deleted":"0","num_feature":"133","num_nodes":"7","size_leaf_vector":"1"}},{"base_weights":[1.6223498E-1,-3.807647E-1,9.115756E-1,-1.3880304E-1,5.6161508E-2],"categories":[],"categories_nodes":[],"categories_segments":[],"categories_sizes":[],"default_left":[0,0,0,0,0],"id":29,"left_children":[1,3,-1,-1,-1],"loss_changes":[2.0869677E1,6.219002E-1,0E0,0E0,0E0],"parents":[2147483647,0,0,1,1],"right_children":[2,4,-1,-1,-1],"split_conditions":[1E0,1E0,9.115756E-1,-1.3880304E-1,5.6161508E-2],"split_indices":[128,28,0,0,0],"split_type":[0,0,0,0,0],"sum_hessian":[1.1621315E1,1.0505669E1,1.1156462E0,9.343537E0,1.1621315E0],"tree_param":{"num_deleted":"0","num_feature":"133","num_nodes":"5","size_leaf_vector":"1"}},{"base_weights":[8.300393E-2,-1.3991483E-1,7.695774E-1],"categories":[],"categories_nodes":[],"categories_segments":[],"categories_sizes":[],"default_left":[0,0,0],"id":30,"left_children":[1,-1,-1],"loss_changes":[1.8408295E1,0E0,0E0],"parents":[2147483647,0,0],"right_children":[2,-1,-1],"split_conditions":[1E0,-1.3991483E-1,7.695774E-1],"split_indices":[69,0,0],"split_type":[0,0,0],"sum_hessian":[1.1621315E1,1.0180272E1,1.441043E0],"tree_param":{"num_deleted":"0","num_feature":"133","num_nodes":"3","size_leaf_vector":"1"}},{"base_weights":[8.300393E-2,-1.4030352E-1,9.115756E-1],"categories":[],"categories_nodes":[],"categories_segments":[],"categories_sizes":[],"default_left":[0,0,0],"id":31,"left_children":[1,-1,-1],"loss_changes":[2.196336E1,0E0,0E0],"parents":[2147483647,0,0],"right_children":[2,-1,-1],"split_conditions":[1E0,-1.4030352E-1,9.115756E-1],"split_indices":[37,0,0],"split_type":[0,0,0],"sum_hessian":[1.1621315E1,1.0505669E1,1.1156462E0],"tree_param":{"num_deleted":"0","num_feature":"133","num_nodes":"3","size_leaf_vector":"1"}},{"base_weights":[-1.5468921E-1,-1.127416E-1,2.6214767E-1],"categories":[],"categories_nodes":[],"categories_segments":[],"categories_sizes":[],"default_left":[0,0,0],"id":32,"left_children":[1,-1,-1],"loss_changes":[3.1987426E0,0E0,0E0],"parents":[2147483647,0,0],"right_children":[2,-1,-1],"split_conditions":[1E0,-1.127416E-1,2.6214767E-1],"split_indices":[56,0,0],"split_type":[0,0,0],"sum_hessian":[1.1621315E1,1.0087301E1,1.5340136E0],"tree_param":{"num_deleted":"0","num_feature":"133","num_nodes":"3","size_leaf_vector":"1"}},{"base_weights":[-7.545816E-2,-3.5839486E-1,6.7863554E-1,-1.314009E-1,-1.2727274E-1,4.3448275E-1,-9.188697E-2,4.7511313E-2,-9.618322E-2],"categories":[],"categories_nodes":[],"categories_segments":[],"categories_sizes":[],"default_left":[0,0,0,0,0,0,0,0,0],"id":33,"left_children":[1,3,5,-1,7,-1,-1,-1,-1],"loss_changes":[2.936113E0,1.2515867E-1,3.3158867E0,0E0,2.6773387E-1,0E0,0E0,0E0,0E0],"parents":[2147483647,0,0,1,1,2,2,4,4],"right_children":[2,4,6,-1,8,-1,-1,-1,-1],"split_conditions":[1E0,1E0,1E0,-1.314009E-1,1E0,4.3448275E-1,-9.188697E-2,4.7511313E-2,-9.618322E-2],"split_indices":[44,123,41,0,0,0,0,0,0],"split_type":[0,0,0,0,0,0,0,0,0],"sum_hessian":[1.1621315E1,8.832199E0,2.7891157E0,5.903628E0,2.9285715E0,1.3015873E0,1.4875283E0,1.255102E0,1.6734693E0],"tree_param":{"num_deleted":"0","num_feature":"133","num_nodes":"9","size_leaf_vector":"1"}},{"base_weights":[3.7728848E-3,-1.3795622E-1,1.185634E0,7.126697E-1,-9.4112486E-2],"categories":[],"categories_nodes":[],"categories_segments":[],"categories_sizes":[],"default_left":[0,0,0,0,0],"id":34,"left_children":[1,-1,3,-1,-1],"loss_changes":[7.460975E0,0E0,7.588387E0,0E0,0E0],"parents":[2147483647,0,0,2,2],"right_children":[2,-1,4,-1,-1],"split_conditions":[1E0,-1.3795622E-1,1E0,7.126697E-1,-9.4112486E-2],"split_indices":[72,0,60,0,0],"split_type":[0,0,0,0,0],"sum_hessian":[1.1621315E1,8.785714E0,2.8356009E0,1.255102E0,1.5804988E0],"tree_param":{"num_deleted":"0","num_feature":"133","num_nodes":"5","size_leaf_vector":"1"}},{"base_weights":[3.7728848E-3,-3.633218E-1,1.0792143E0,-1.361237E-1,3.579545E-2,6.455343E-1,-8.948864E-2],"categories":[],"categories_nodes":[],"categories_segments":[],"categories_sizes":[],"default_left":[0,0,0,0,0,0,0],"id":35,"left_children":[1,3,5,-1,-1,-1,-1],"loss_changes":[5.3748565E0,4.9743938E-1,5.75941E0,0E0,0E0,0E0,0E0],"parents":[2147483647,0,0,1,1,2,2],"right_children":[2,4,6,-1,-1,-1,-1],"split_conditions":[1E0,1E0,1E0,-1.361237E-1,3.579545E-2,6.455343E-1,-8.948864E-2],"split_indices":[0,60,41,0,0,0,0],"split_type":[0,0,0,0,0,0,0],"sum_hessian":[1.1621315E1,9.157597E0,2.463719E0,7.7630386E0,1.3945578E0,1.0691609E0,1.3945578E0],"tree_param":{"num_deleted":"0","num_feature":"133","num_nodes":"7","size_leaf_vector":"1"}},{"base_weights":[3.7728848E-3,-1.3974123E-1,6.034271E-1],"categories":[],"categories_nodes":[],"categories_segments":[],"categories_sizes":[],"default_left":[0,0,0],"id":36,"left_children":[1,-1,-1],"loss_changes":[1.283563E1,0E0,0E0],"parents":[2147483647,0,0],"right_children":[2,-1,-1],"split_conditions":[1E0,-1.3974123E-1,6.034271E-1],"split_indices":[18,0,0],"split_type":[0,0,0],"sum_hessian":[1.1621315E1,1.0040816E1,1.5804988E0],"tree_param":{"num_deleted":"0","num_feature":"133","num_nodes":"3","size_leaf_vector":"1"}},{"base_weights":[3.7728848E-3,-1.3979958E-1,6.173154E-1],"categories":[],"categories_nodes":[],"categories_segments":[],"categories_sizes":[],"default_left":[0,0,0],"id":37,"left_children":[1,-1,-1],"loss_changes":[1.3137011E1,0E0,0E0],"parents":[2147483647,0,0],"right_children":[2,-1,-1],"split_conditions":[1E0,-1.3979958E-1,6.173154E-1],"split_indices":[101,0,0],"split_type":[0,0,0],"sum_hessian":[1.1621315E1,1.0087301E1,1.5340136E0],"tree_param":{"num_deleted":"0","num_feature":"133","num_nodes":"3","size_leaf_vector":"1"}},{"base_weights":[8.300393E-2,-1.4030352E-1,9.115756E-1],"categories":[],"categories_nodes":[],"categories_segments":[],"categories_sizes":[],"default_left":[0,0,0],"id":38,"left_children":[1,-1,-1],"loss_changes":[2.196336E1,0E0,0E0],"parents":[2147483647,0,0],"right_children":[2,-1,-1],"split_conditions":[1E0,-1.4030352E-1,9.115756E-1],"split_indices":[128,0,0],"split_type":[0,0,0],"sum_hessian":[1.1621315E1,1.0505669E1,1.1156462E0],"tree_param":{"num_deleted":"0","num_feature":"133","num_nodes":"3","size_leaf_vector":"1"}},{"base_weights":[3.7728848E-3,-1.393186E-1,5.1865E-1],"categories":[],"categories_nodes":[],"categories_segments":[],"categories_sizes":[],"default_left":[0,0,0],"id":39,"left_children":[1,-1,-1],"loss_changes":[1.099607E1,0E0,0E0],"parents":[2147483647,0,0],"right_children":[2,-1,-1],"split_conditions":[1E0,-1.393186E-1,5.1865E-1],"split_indices":[19,0,0],"split_type":[0,0,0],"sum_hessian":[1.1621315E1,9.71542E0,1.9058957E0],"tree_param":{"num_deleted":"0","num_feature":"133","num_nodes":"3","size_leaf_vector":"1"}},{"base_weights":[-1.5468921E-1,7.074848E-2,-1.2753037E-1,1.0063897E-1,-1.0869278E-1],"categories":[],"categories_nodes":[],"categories_segments":[],"categories_sizes":[],"default_left":[0,0,0,0,0],"id":40,"left_children":[1,3,-1,-1,-1],"loss_changes":[7.99484E-1,1.0088716E0,0E0,0E0,0E0],"parents":[2147483647,0,0,1,1],"right_children":[2,4,-1,-1,-1],"split_conditions":[1E0,1E0,-1.2753037E-1,1.0063897E-1,-1.0869278E-1],"split_indices":[41,123,0,0,0],"split_type":[0,0,0,0,0],"sum_hessian":[1.1621315E1,6.7403626E0,4.8809524E0,4.323129E0,2.4172335E0],"tree_param":{"num_deleted":"0","num_feature":"133","num_nodes":"5","size_leaf_vector":"1"}},{"base_weights":[8.300393E-2,-9.5049076E-2,5.9514165E-1,4.0290698E-1,-1.0807266E-1],"categories":[],"categories_nodes":[],"categories_segments":[],"categories_sizes":[],"default_left":[0,0,0,0,0],"id":41,"left_children":[1,-1,3,-1,-1],"loss_changes":[2.7730277E0,0E0,4.685836E0,0E0,0E0],"parents":[2147483647,0,0,2,2],"right_children":[2,-1,4,-1,-1],"split_conditions":[1E0,-9.5049076E-2,1E0,4.0290698E-1,-1.0807266E-1],"split_indices":[41,0,45,0,0],"split_type":[0,0,0,0,0],"sum_hessian":[1.1621315E1,6.7403626E0,4.8809524E0,2.510204E0,2.3707483E0],"tree_param":{"num_deleted":"0","num_feature":"133","num_nodes":"5","size_leaf_vector":"1"}},{"base_weights":[-1.3927701E-1,-9.941606E-2,2.33105E-1,2.4071077E-1,-1.0278904E-1],"categories":[],"categories_nodes":[],"categories_segments":[],"categories_sizes":[],"default_left":[0,0,0,0,0],"id":42,"left_children":[1,-1,3,-1,-1],"loss_changes":[9.4336045E-1,0E0,1.8177261E0,0E0,0E0],"parents":[2147483647,0,0,2,2],"right_children":[2,-1,4,-1,-1],"split_conditions":[1E0,-9.941606E-2,1E0,2.4071077E-1,-1.0278904E-1],"split_indices":[45,0,41,0,0],"split_type":[0,0,0,0,0],"sum_hessian":[1.1106984E1,7.3996396E0,3.7073445E0,1.6662145E0,2.04113E0],"tree_param":{"num_deleted":"0","num_feature":"133","num_nodes":"5","size_leaf_vector":"1"}},{"base_weights":[-1.3784717E-1,-1.08442225E-1,2.0165415E-1],"categories":[],"categories_nodes":[],"categories_segments":[],"categories_sizes":[],"default_left":[0,0,0],"id":43,"left_children":[1,-1,-1],"loss_changes":[2.4280405E0,0E0,0E0],"parents":[2147483647,0,0],"right_children":[2,-1,-1],"split_conditions":[1E0,-1.08442225E-1,2.0165415E-1],"split_indices":[101,0,0],"split_type":[0,0,0],"sum_hessian":[1.1062585E1,9.103189E0,1.9593955E0],"tree_param":{"num_deleted":"0","num_feature":"133","num_nodes":"3","size_leaf_vector":"1"}},{"base_weights":[3.6337776E-3,-3.5562617E-1,8.9899945E-1,-1.3052554E-1,-1.3129517E-1,6.3118756E-1,-9.995625E-2,2.3137972E-2,-8.960963E-2],"categories":[],"categories_nodes":[],"categories_segments":[],"categories_sizes":[],"default_left":[0,0,0,0,0,0,0,0,0],"id":44,"left_children":[1,3,5,-1,7,-1,-1,-1,-1],"loss_changes":[4.373038E0,1.1594355E-1,6.479168E0,0E0,1.6161326E-1,0E0,0E0,0E0,0E0],"parents":[2147483647,0,0,1,1,2,2,4,4],"right_children":[2,4,6,-1,8,-1,-1,-1,-1],"split_conditions":[1E0,1E0,1E0,-1.3052554E-1,1E0,6.3118756E-1,-9.995625E-2,2.3137972E-2,-8.960963E-2],"split_indices":[132,123,41,0,72,0,0,0,0],"split_type":[0,0,0,0,0,0,0,0,0],"sum_hessian":[1.1600936E1,8.709227E0,2.8917089E0,5.7375016E0,2.971725E0,1.1043059E0,1.7874031E0,1.563903E0,1.407822E0],"tree_param":{"num_deleted":"0","num_feature":"133","num_nodes":"9","size_leaf_vector":"1"}},{"base_weights":[-1.377146E-1,-1.0748785E-1,5.9191006E-1,3.7100455E-1,-8.307014E-2],"categories":[],"categories_nodes":[],"categories_segments":[],"categories_sizes":[],"default_left":[0,0,0,0,0],"id":45,"left_children":[1,-1,3,-1,-1],"loss_changes":[2.1533706E0,0E0,2.1222453E0,0E0,0E0],"parents":[2147483647,0,0,2,2],"right_children":[2,-1,4,-1,-1],"split_conditions":[1E0,-1.0748785E-1,1E0,3.7100455E-1,-8.307014E-2],"split_indices":[19,0,64,0,0],"split_type":[0,0,0,0,0],"sum_hessian":[1.106227E1,8.885089E0,2.1771815E0,1.006676E0,1.1705055E0],"tree_param":{"num_deleted":"0","num_feature":"133","num_nodes":"5","size_leaf_vector":"1"}},{"base_weights":[-8.934566E-3,2.3045021E-1,-1.2353145E-1,4.7988382E-1,-1.0543735E-1,2.0917983E-1,-8.3488844E-2],"categories":[],"categories_nodes":[],"categories_segments":[],"categories_sizes":[],"default_left":[0,0,0,0,0,0,0],"id":46,"left_children":[1,3,-1,5,-1,-1,-1],"loss_changes":[1.3406397E0,1.4378589E0,0E0,1.2724931E0,0E0,0E0,0E0],"parents":[2147483647,0,0,1,1,3,3],"right_children":[2,4,-1,6,-1,-1,-1],"split_conditions":[1E0,1E0,-1.2353145E-1,1E0,-1.0543735E-1,2.0917983E-1,-8.3488844E-2],"split_indices":[41,123,0,101,0,0,0],"split_type":[0,0,0,0,0,0,0],"sum_hessian":[1.191826E1,7.7442136E0,4.1740465E0,5.5433817E0,2.2008314E0,4.3706026E0,1.1727793E0],"tree_param":{"num_deleted":"0","num_feature":"133","num_nodes":"7","size_leaf_vector":"1"}},{"base_weights":[-6.488441E-2,-1.3963243E-1,5.635542E-1],"categories":[],"categories_nodes":[],"categories_segments":[],"categories_sizes":[],"default_left":[0,0,0],"id":47,"left_children":[1,-1,-1],"loss_changes":[1.04600525E1,0E0,0E0],"parents":[2147483647,0,0],"right_children":[2,-1,-1],"split_conditions":[1E0,-1.3963243E-1,5.635542E-1],"split_indices":[14,0,0],"split_type":[0,0,0],"sum_hessian":[1.1313977E1,1.0011079E1,1.3028984E0],"tree_param":{"num_deleted":"0","num_feature":"133","num_nodes":"3","size_leaf_vector":"1"}},{"base_weights":[-7.594463E-2,1.3868472E-1,-1.2353145E-1,3.6755908E-1,-1.0543735E-1,1.6746594E-1,-8.124602E-2],"categories":[],"categories_nodes":[],"categories_segments":[],"categories_sizes":[],"default_left":[0,0,0,0,0,0,0],"id":48,"left_children":[1,3,-1,5,-1,-1,-1],"loss_changes":[9.669961E-1,1.0770645E0,0E0,9.117364E-1,0E0,0E0,0E0],"parents":[2147483647,0,0,1,1,3,3],"right_children":[2,4,-1,6,-1,-1,-1],"split_conditions":[1E0,1E0,-1.2353145E-1,1E0,-1.0543735E-1,1.6746594E-1,-8.124602E-2],"split_indices":[41,123,0,101,0,0,0],"split_type":[0,0,0,0,0,0,0],"sum_hessian":[1.1623629E1,7.4495826E0,4.1740465E0,5.248751E0,2.2008314E0,4.138345E0,1.1104064E0],"tree_param":{"num_deleted":"0","num_feature":"133","num_nodes":"7","size_leaf_vector":"1"}},{"base_weights":[4.5098797E-3,-1.4063397E-1,8.0640817E-1],"categories":[],"categories_nodes":[],"categories_segments":[],"categories_sizes":[],"default_left":[0,0,0],"id":49,"left_children":[1,-1,-1],"loss_changes":[1.7230047E1,0E0,0E0],"parents":[2147483647,0,0],"right_children":[2,-1,-1],"split_conditions":[1E0,-1.4063397E-1,8.0640817E-1],"split_indices":[65,0,0],"split_type":[0,0,0],"sum_hessian":[1.1573961E1,1.054029E1,1.033671E0],"tree_param":{"num_deleted":"0","num_feature":"133","num_nodes":"3","size_leaf_vector":"1"}},{"base_weights":[3.128037E-3,-3.7589702E-1,4.8959878E-1,-1.3646811E-1,-4.069719E-3],"categories":[],"categories_nodes":[],"categories_segments":[],"categories_sizes":[],"default_left":[0,0,0,0,0],"id":50,"left_children":[1,3,-1,-1,-1],"loss_changes":[8.403129E0,3.100648E-1,0E0,0E0,0E0],"parents":[2147483647,0,0,1,1],"right_children":[2,4,-1,-1,-1],"split_conditions":[1E0,1E0,4.8959878E-1,-1.3646811E-1,-4.069719E-3],"split_indices":[55,132,0,0,0],"split_type":[0,0,0,0,0],"sum_hessian":[1.1617261E1,1.0048322E1,1.5689392E0,8.039959E0,2.0083628E0],"tree_param":{"num_deleted":"0","num_feature":"133","num_nodes":"5","size_leaf_vector":"1"}},{"base_weights":[1.3568796E-1,-1.41318E-1,1.0079991E0],"categories":[],"categories_nodes":[],"categories_segments":[],"categories_sizes":[],"default_left":[0,0,0],"id":51,"left_children":[1,-1,-1],"loss_changes":[2.7188135E1,0E0,0E0],"parents":[2147483647,0,0],"right_children":[2,-1,-1],"split_conditions":[1E0,-1.41318E-1,1.0079991E0],"split_indices":[83,0,0],"split_type":[0,0,0],"sum_hessian":[1.2088389E1,1.0892542E1,1.1958467E0],"tree_param":{"num_deleted":"0","num_feature":"133","num_nodes":"3","size_leaf_vector":"1"}},{"base_weights":[1.8124437E-1,-1.3748391E-1,1.4098548E0,9.168081E-1,-1.0966403E-1],"categories":[],"categories_nodes":[],"categories_segments":[],"categories_sizes":[],"default_left":[0,0,0,0,0],"id":52,"left_children":[1,-1,3,-1,-1],"loss_changes":[1.1363302E1,0E0,1.5480876E1,0E0,0E0],"parents":[2147483647,0,0,2,2],"right_children":[2,-1,4,-1,-1],"split_conditions":[1E0,-1.3748391E-1,1E0,9.168081E-1,-1.0966403E-1],"split_indices":[26,0,18,0,0],"split_type":[0,0,0,0,0],"sum_hessian":[1.2639864E1,8.725175E0,3.9146895E0,1.656992E0,2.2576976E0],"tree_param":{"num_deleted":"0","num_feature":"133","num_nodes":"5","size_leaf_vector":"1"}},{"base_weights":[2.002018E-1,-1.4169331E-1,1.2550311E0],"categories":[],"categories_nodes":[],"categories_segments":[],"categories_sizes":[],"default_left":[0,0,0],"id":53,"left_children":[1,-1,-1],"loss_changes":[3.7613724E1,0E0,0E0],"parents":[2147483647,0,0],"right_children":[2,-1,-1],"split_conditions":[1E0,-1.4169331E-1,1.2550311E0],"split_indices":[6,0,0],"split_type":[0,0,0],"sum_hessian":[1.2303778E1,1.1280628E1,1.023149E0],"tree_param":{"num_deleted":"0","num_feature":"133","num_nodes":"3","size_leaf_vector":"1"}},{"base_weights":[-6.4206354E-2,-3.7830845E-1,5.145704E-1,-1.3774773E-1,2.9282779E-2],"categories":[],"categories_nodes":[],"categories_segments":[],"categories_sizes":[],"default_left":[0,0,0,0,0],"id":54,"left_children":[1,3,-1,-1,-1],"loss_changes":[7.5228653E0,4.7856987E-1,0E0,0E0,0E0],"parents":[2147483647,0,0,1,1],"right_children":[2,4,-1,-1,-1],"split_conditions":[1E0,1E0,5.145704E-1,-1.3774773E-1,2.9282779E-2],"split_indices":[128,59,0,0,0],"split_type":[0,0,0,0,0],"sum_hessian":[1.1298542E1,1.0272644E1,1.0258988E0,8.81101E0,1.4616333E0],"tree_param":{"num_deleted":"0","num_feature":"133","num_nodes":"5","size_leaf_vector":"1"}},{"base_weights":[-8.934566E-3,2.3045021E-1,-1.2353145E-1,4.7988382E-1,-1.0543735E-1,2.0917983E-1,-8.3488844E-2],"categories":[],"categories_nodes":[],"categories_segments":[],"categories_sizes":[],"default_left":[0,0,0,0,0,0,0],"id":55,"left_children":[1,3,-1,5,-1,-1,-1],"loss_changes":[1.3406397E0,1.4378589E0,0E0,1.2724931E0,0E0,0E0,0E0],"parents":[2147483647,0,0,1,1,3,3],"right_children":[2,4,-1,6,-1,-1,-1],"split_conditions":[1E0,1E0,-1.2353145E-1,1E0,-1.0543735E-1,2.0917983E-1,-8.3488844E-2],"split_indices":[41,123,0,101,0,0,0],"split_type":[0,0,0,0,0,0,0],"sum_hessian":[1.191826E1,7.7442136E0,4.1740465E0,5.5433817E0,2.2008314E0,4.3706026E0,1.1727793E0],"tree_param":{"num_deleted":"0","num_feature":"133","num_nodes":"7","size_leaf_vector":"1"}},{"base_weights":[-6.2144823E-2,-3.6697793E-1,3.281691E-1,-1.3633443E-1,3.63254E-2],"categories":[],"categories_nodes":[],"categories_segments":[],"categories_sizes":[],"default_left":[0,0,0,0,0],"id":56,"left_children":[1,3,-1,-1,-1],"loss_changes":[4.7166643E0,5.006732E-1,0E0,0E0,0E0],"parents":[2147483647,0,0,1,1],"right_children":[2,4,-1,-1,-1],"split_conditions":[1E0,1E0,3.281691E-1,-1.3633443E-1,3.63254E-2],"split_indices":[101,55,0,0,0],"split_type":[0,0,0,0,0],"sum_hessian":[1.1245262E1,9.438903E0,1.8063586E0,8.062773E0,1.3761307E0],"tree_param":{"num_deleted":"0","num_feature":"133","num_nodes":"5","size_leaf_vector":"1"}},{"base_weights":[-1.363341E-1,-3.644704E-1,2.3184668E-1,-1.3633443E-1,4.9968004E-2],"categories":[],"categories_nodes":[],"categories_segments":[],"categories_sizes":[],"default_left":[0,0,0,0,0],"id":57,"left_children":[1,3,-1,-1,-1],"loss_changes":[2.7738101E0,5.6710565E-1,0E0,0E0,0E0],"parents":[2147483647,0,0,1,1],"right_children":[2,4,-1,-1,-1],"split_conditions":[1E0,1E0,2.3184668E-1,-1.3633443E-1,4.9968004E-2],"split_indices":[101,55,0,0,0],"split_type":[0,0,0,0,0],"sum_hessian":[1.1015432E1,9.284713E0,1.7307191E0,8.062773E0,1.2219405E0],"tree_param":{"num_deleted":"0","num_feature":"133","num_nodes":"5","size_leaf_vector":"1"}},{"base_weights":[-6.488441E-2,-1.3748391E-1,1.0192437E0,5.949177E-1,-9.015699E-2],"categories":[],"categories_nodes":[],"categories_segments":[],"categories_sizes":[],"default_left":[0,0,0,0,0],"id":58,"left_children":[1,-1,3,-1,-1],"loss_changes":[5.718898E0,0E0,5.1609535E0,0E0,0E0],"parents":[2147483647,0,0,2,2],"right_children":[2,-1,4,-1,-1],"split_conditions":[1E0,-1.3748391E-1,1E0,5.949177E-1,-9.015699E-2],"split_indices":[26,0,41,0,0],"split_type":[0,0,0,0,0],"sum_hessian":[1.1313977E1,8.725175E0,2.5888026E0,1.2057041E0,1.3830986E0],"tree_param":{"num_deleted":"0","num_feature":"133","num_nodes":"5","size_leaf_vector":"1"}},{"base_weights":[-1.3555689E-1,-1.3813259E-1,3.2260752E-1],"categories":[],"categories_nodes":[],"categories_segments":[],"categories_sizes":[],"default_left":[0,0,0],"id":59,"left_children":[1,-1,-1],"loss_changes":[5.2099056E0,0E0,0E0],"parents":[2147483647,0,0],"right_children":[2,-1,-1],"split_conditions":[1E0,-1.3813259E-1,3.2260752E-1],"split_indices":[31,0,0],"split_type":[0,0,0],"sum_hessian":[1.0984407E1,9.1494055E0,1.8350021E0],"tree_param":{"num_deleted":"0","num_feature":"133","num_nodes":"3","size_leaf_vector":"1"}},{"base_weights":[-6.675863E-2,-3.764963E-1,4.5879027E-1,-1.3799858E-1,5.242527E-2],"categories":[],"categories_nodes":[],"categories_segments":[],"categories_sizes":[],"default_left":[0,0,0,0,0],"id":60,"left_children":[1,3,-1,-1,-1],"loss_changes":[6.6914897E0,5.9419477E-1,0E0,0E0,0E0],"parents":[2147483647,0,0,1,1],"right_children":[2,4,-1,-1,-1],"split_conditions":[1E0,1E0,4.5879027E-1,-1.3799858E-1,5.242527E-2],"split_indices":[14,18,0,0,0],"split_type":[0,0,0,0,0],"sum_hessian":[1.1370979E1,1.0162846E1,1.2081335E0,8.969714E0,1.1931313E0],"tree_param":{"num_deleted":"0","num_feature":"133","num_nodes":"5","size_leaf_vector":"1"}},{"base_weights":[1.3568796E-1,-1.4125971E-1,9.824053E-1],"categories":[],"categories_nodes":[],"categories_segments":[],"categories_sizes":[],"default_left":[0,0,0],"id":61,"left_children":[1,-1,-1],"loss_changes":[2.6461834E1,0E0,0E0],"parents":[2147483647,0,0],"right_children":[2,-1,-1],"split_conditions":[1E0,-1.4125971E-1,9.824053E-1],"split_indices":[65,0,0],"split_type":[0,0,0],"sum_hessian":[1.2088389E1,1.0843144E1,1.2452446E0],"tree_param":{"num_deleted":"0","num_feature":"133","num_nodes":"3","size_leaf_vector":"1"}},{"base_weights":[7.1618676E-2,-1.3988903E-1,1.8551507E0,9.18184E-1,-7.9083875E-2],"categories":[],"categories_nodes":[],"categories_segments":[],"categories_sizes":[],"default_left":[0,0,0,0,0],"id":62,"left_children":[1,-1,3,-1,-1],"loss_changes":[1.3154403E1,0E0,8.900826E0,0E0,0E0],"parents":[2147483647,0,0,2,2],"right_children":[2,-1,4,-1,-1],"split_conditions":[1E0,-1.3988903E-1,1E0,9.18184E-1,-7.9083875E-2],"split_indices":[131,0,123,0,0],"split_type":[0,0,0,0,0],"sum_hessian":[1.1809557E1,9.640519E0,2.1690378E0,1.0991517E0,1.0698862E0],"tree_param":{"num_deleted":"0","num_feature":"133","num_nodes":"5","size_leaf_vector":"1"}},{"base_weights":[1.0204122E-2,-1.3689741E-1,1.083427E0,7.70807E-1,-1.0313864E-1],"categories":[],"categories_nodes":[],"categories_segments":[],"categories_sizes":[],"default_left":[0,0,0,0,0],"id":63,"left_children":[1,-1,3,-1,-1],"loss_changes":[6.7259555E0,0E0,9.509195E0,0E0,0E0],"parents":[2147483647,0,0,2,2],"right_children":[2,-1,4,-1,-1],"split_conditions":[1E0,-1.3689741E-1,1E0,7.70807E-1,-1.0313864E-1],"split_indices":[132,0,123,0,0],"split_type":[0,0,0,0,0],"sum_hessian":[1.1445962E1,8.378601E0,3.0673602E0,1.1107113E0,1.9566488E0],"tree_param":{"num_deleted":"0","num_feature":"133","num_nodes":"5","size_leaf_vector":"1"}},{"base_weights":[5.6948047E-3,-1.3791364E-1,1.3158889E0,4.162075E-2,5.811959E-1],"categories":[],"categories_nodes":[],"categories_segments":[],"categories_sizes":[],"default_left":[0,0,0,0,0],"id":64,"left_children":[1,-1,3,-1,-1],"loss_changes":[8.256351E0,0E0,2.3265686E0,0E0,0E0],"parents":[2147483647,0,0,2,2],"right_children":[2,-1,4,-1,-1],"split_conditions":[1E0,-1.3791364E-1,1E0,4.162075E-2,5.811959E-1],"split_indices":[28,0,56,0,0],"split_type":[0,0,0,0,0],"sum_hessian":[1.1547974E1,9.00009E0,2.5478837E0,1.3029693E0,1.2449144E0],"tree_param":{"num_deleted":"0","num_feature":"133","num_nodes":"5","size_leaf_vector":"1"}},{"base_weights":[3.1280303E-3,-3.724763E-1,4.324326E-1,-1.3615882E-1,1.212978E-3],"categories":[],"categories_nodes":[],"categories_segments":[],"categories_sizes":[],"default_left":[0,0,0,0,0],"id":65,"left_children":[1,3,-1,-1,-1],"loss_changes":[7.3532133E0,3.327639E-1,0E0,0E0,0E0],"parents":[2147483647,0,0,1,1],"right_children":[2,4,-1,-1,-1],"split_conditions":[1E0,1E0,4.324326E-1,-1.3615882E-1,1.212978E-3],"split_indices":[56,132,0,0,0],"split_type":[0,0,0,0,0],"sum_hessian":[1.1617261E1,9.799287E0,1.817974E0,7.888694E0,1.9105932E0],"tree_param":{"num_deleted":"0","num_feature":"133","num_nodes":"5","size_leaf_vector":"1"}},{"base_weights":[-6.3647315E-2,-1.3775045E-1,1.1101456E0,6.454083E-1,-8.842208E-2],"categories":[],"categories_nodes":[],"categories_segments":[],"categories_sizes":[],"default_left":[0,0,0,0,0],"id":66,"left_children":[1,-1,3,-1,-1],"loss_changes":[6.210841E0,0E0,5.5893884E0,0E0,0E0],"parents":[2147483647,0,0,2,2],"right_children":[2,-1,4,-1,-1],"split_conditions":[1E0,-1.3775045E-1,1E0,6.454083E-1,-8.842208E-2],"split_indices":[18,0,83,0,0],"split_type":[0,0,0,0,0],"sum_hessian":[1.1279981E1,8.892413E0,2.3875675E0,1.0660985E0,1.321469E0],"tree_param":{"num_deleted":"0","num_feature":"133","num_nodes":"5","size_leaf_vector":"1"}},{"base_weights":[1.1454082E-2,-1.399148E-1,6.6134655E-1],"categories":[],"categories_nodes":[],"categories_segments":[],"categories_sizes":[],"default_left":[0,0,0],"id":67,"left_children":[1,-1,-1],"loss_changes":[1.4036216E1,0E0,0E0],"parents":[2147483647,0,0],"right_children":[2,-1,-1],"split_conditions":[1E0,-1.399148E-1,6.6134655E-1],"split_indices":[53,0,0],"split_type":[0,0,0],"sum_hessian":[1.141333E1,1.0017884E1,1.395446E0],"tree_param":{"num_deleted":"0","num_feature":"133","num_nodes":"3","size_leaf_vector":"1"}},{"base_weights":[1.3188054E-1,-1.3903262E-1,1.8136026E0,5.1442724E-2,7.6078594E-1],"categories":[],"categories_nodes":[],"categories_segments":[],"categories_sizes":[],"default_left":[0,0,0,0,0],"id":68,"left_children":[1,-1,3,-1,-1],"loss_changes":[1.3995046E1,0E0,3.8813534E0,0E0,0E0],"parents":[2147483647,0,0,2,2],"right_children":[2,-1,4,-1,-1],"split_conditions":[1E0,-1.3903262E-1,1E0,5.1442724E-2,7.6078594E-1],"split_indices":[53,0,110,0,0],"split_type":[0,0,0,0,0],"sum_hessian":[1.2139212E1,9.500499E0,2.6387126E0,1.1841525E0,1.4545602E0],"tree_param":{"num_deleted":"0","num_feature":"133","num_nodes":"5","size_leaf_vector":"1"}},{"base_weights":[1.2782273E-1,-1.4093935E-1,8.471148E-1],"categories":[],"categories_nodes":[],"categories_segments":[],"categories_sizes":[],"default_left":[0,0,0],"id":69,"left_children":[1,-1,-1],"loss_changes":[2.2633995E1,0E0,0E0],"parents":[2147483647,0,0],"right_children":[2,-1,-1],"split_conditions":[1E0,-1.4093935E-1,8.471148E-1],"split_indices":[30,0,0],"split_type":[0,0,0],"sum_hessian":[1.222521E1,1.0682802E1,1.5424079E0],"tree_param":{"num_deleted":"0","num_feature":"133","num_nodes":"3","size_leaf_vector":"1"}},{"base_weights":[-6.638021E-2,-3.6241487E-1,2.6859534E-1,-1.3264695E-1,-1.068488E-1,6.0892418E-2,-9.475911E-2],"categories":[],"categories_nodes":[],"categories_segments":[],"categories_sizes":[],"default_left":[0,0,0,0,0,0,0],"id":70,"left_children":[1,3,-1,-1,5,-1,-1],"loss_changes":[3.8427453E0,1.5983212E-1,0E0,0E0,3.0599138E-1,0E0,0E0],"parents":[2147483647,0,0,1,1,4,4],"right_children":[2,4,-1,-1,6,-1,-1],"split_conditions":[1E0,1E0,2.6859534E-1,-1.3264695E-1,1E0,6.0892418E-2,-9.475911E-2],"split_indices":[101,45,0,0,41,0,0],"split_type":[0,0,0,0,0,0,0],"sum_hessian":[1.1357987E1,9.161118E0,2.1968696E0,6.4259796E0,2.7351377E0,1.1134963E0,1.6216414E0],"tree_param":{"num_deleted":"0","num_feature":"133","num_nodes":"7","size_leaf_vector":"1"}},{"base_weights":[1.4396186E-1,-3.7972933E-1,6.945208E-1,-1.3917887E-1,7.275617E-2],"categories":[],"categories_nodes":[],"categories_segments":[],"categories_sizes":[],"default_left":[0,0,0,0,0],"id":71,"left_children":[1,3,-1,-1,-1],"loss_changes":[1.5582056E1,7.033831E-1,0E0,0E0,0E0],"parents":[2147483647,0,0,1,1],"right_children":[2,4,-1,-1,-1],"split_conditions":[1E0,1E0,6.945208E-1,-1.3917887E-1,7.275617E-2],"split_indices":[55,28,0,0,0],"split_type":[0,0,0,0,0],"sum_hessian":[1.1931477E1,1.0277537E1,1.6539385E0,9.276688E0,1.0008503E0],"tree_param":{"num_deleted":"0","num_feature":"133","num_nodes":"5","size_leaf_vector":"1"}},{"base_weights":[7.5193755E-2,-1.401574E-1,6.858913E-1],"categories":[],"categories_nodes":[],"categories_segments":[],"categories_sizes":[],"default_left":[0,0,0],"id":72,"left_children":[1,-1,-1],"loss_changes":[1.6367403E1,0E0,0E0],"parents":[2147483647,0,0],"right_children":[2,-1,-1],"split_conditions":[1E0,-1.401574E-1,6.858913E-1],"split_indices":[110,0,0],"split_type":[0,0,0],"sum_hessian":[1.17571125E1,1.0074537E1,1.6825751E0],"tree_param":{"num_deleted":"0","num_feature":"133","num_nodes":"3","size_leaf_vector":"1"}},{"base_weights":[7.314265E-2,-1.3937655E-1,6.0774136E-1],"categories":[],"categories_nodes":[],"categories_segments":[],"categories_sizes":[],"default_left":[0,0,0],"id":73,"left_children":[1,-1,-1],"loss_changes":[1.4363466E1,0E0,0E0],"parents":[2147483647,0,0],"right_children":[2,-1,-1],"split_conditions":[1E0,-1.3937655E-1,6.0774136E-1],"split_indices":[13,0,0],"split_type":[0,0,0],"sum_hessian":[1.1783058E1,9.83636E0,1.9466982E0],"tree_param":{"num_deleted":"0","num_feature":"133","num_nodes":"3","size_leaf_vector":"1"}},{"base_weights":[-1.3745785E-1,-1.08566284E-1,2.0631744E-1],"categories":[],"categories_nodes":[],"categories_segments":[],"categories_sizes":[],"default_left":[0,0,0],"id":74,"left_children":[1,-1,-1],"loss_changes":[2.4807155E0,0E0,0E0],"parents":[2147483647,0,0],"right_children":[2,-1,-1],"split_conditions":[1E0,-1.08566284E-1,2.0631744E-1],"split_indices":[56,0,0],"split_type":[0,0,0],"sum_hessian":[1.1051245E1,9.129646E0,1.9215978E0],"tree_param":{"num_deleted":"0","num_feature":"133","num_nodes":"3","size_leaf_vector":"1"}},{"base_weights":[-6.849679E-2,-3.46373E-1,5.4638124E-1,-1.291271E-1,-1.1634619E-1,3.418483E-1,-9.330642E-2,4.288899E-2,-9.23679E-2],"categories":[],"categories_nodes":[],"categories_segments":[],"categories_sizes":[],"default_left":[0,0,0,0,0,0,0,0,0],"id":75,"left_children":[1,3,5,-1,7,-1,-1,-1,-1],"loss_changes":[2.3102615E0,1.2705696E-1,2.5166266E0,0E0,2.3386882E-1,0E0,0E0,0E0,0E0],"parents":[2147483647,0,0,1,1,2,2,4,4],"right_children":[2,4,6,-1,8,-1,-1,-1,-1],"split_conditions":[1E0,1E0,1E0,-1.291271E-1,1E0,3.418483E-1,-9.330642E-2,4.288899E-2,-9.23679E-2],"split_indices":[44,123,72,0,0,0,0,0,0],"split_type":[0,0,0,0,0,0,0,0,0],"sum_hessian":[1.1413732E1,8.161886E0,3.251846E0,5.339624E0,2.822262E0,1.7276957E0,1.5241504E0,1.3067997E0,1.5154624E0],"tree_param":{"num_deleted":"0","num_feature":"133","num_nodes":"9","size_leaf_vector":"1"}},{"base_weights":[8.861374E-4,-1.3581261E-1,8.2043815E-1,5.362663E-1,-1.0457664E-1],"categories":[],"categories_nodes":[],"categories_segments":[],"categories_sizes":[],"default_left":[0,0,0,0,0],"id":76,"left_children":[1,-1,3,-1,-1],"loss_changes":[5.075208E0,0E0,6.1219187E0,0E0,0E0],"parents":[2147483647,0,0,2,2],"right_children":[2,-1,4,-1,-1],"split_conditions":[1E0,-1.3581261E-1,1E0,5.362663E-1,-1.0457664E-1],"split_indices":[72,0,41,0,0],"split_type":[0,0,0,0,0],"sum_hessian":[1.1653282E1,7.7896075E0,3.8636746E0,1.8248836E0,2.038791E0],"tree_param":{"num_deleted":"0","num_feature":"133","num_nodes":"5","size_leaf_vector":"1"}},{"base_weights":[6.204439E-3,-3.485916E-1,7.8300375E-1,-1.3396479E-1,3.8524743E-2,6.070883E-1,-1.0476479E-1],"categories":[],"categories_nodes":[],"categories_segments":[],"categories_sizes":[],"default_left":[0,0,0,0,0,0,0],"id":77,"left_children":[1,3,5,-1,-1,-1,-1],"loss_changes":[3.7287285E0,4.9187422E-1,6.661655E0,0E0,0E0,0E0,0E0],"parents":[2147483647,0,0,1,1,2,2],"right_children":[2,4,6,-1,-1,-1,-1],"split_conditions":[1E0,1E0,1E0,-1.3396479E-1,3.8524743E-2,6.070883E-1,-1.0476479E-1],"split_indices":[0,60,132,0,0,0,0],"split_type":[0,0,0,0,0,0,0],"sum_hessian":[1.1538874E1,8.29943E0,3.239443E0,6.9384174E0,1.3610129E0,1.1700531E0,2.06939E0],"tree_param":{"num_deleted":"0","num_feature":"133","num_nodes":"7","size_leaf_vector":"1"}},{"base_weights":[5.224246E-3,-1.3989845E-1,6.475491E-1],"categories":[],"categories_nodes":[],"categories_segments":[],"categories_sizes":[],"default_left":[0,0,0],"id":78,"left_children":[1,-1,-1],"loss_changes":[1.3761498E1,0E0,0E0],"parents":[2147483647,0,0],"right_children":[2,-1,-1],"split_conditions":[1E0,-1.3989845E-1,6.475491E-1],"split_indices":[14,0,0],"split_type":[0,0,0],"sum_hessian":[1.1561721E1,1.0127335E1,1.4343863E0],"tree_param":{"num_deleted":"0","num_feature":"133","num_nodes":"3","size_leaf_vector":"1"}},{"base_weights":[2.4075264E-3,-1.3768895E-1,1.2132206E0,6.105858E-1,-8.567225E-2],"categories":[],"categories_nodes":[],"categories_segments":[],"categories_sizes":[],"default_left":[0,0,0,0,0],"id":79,"left_children":[1,-1,3,-1,-1],"loss_changes":[7.6081996E0,0E0,5.210429E0,0E0,0E0],"parents":[2147483647,0,0,2,2],"right_children":[2,-1,4,-1,-1],"split_conditions":[1E0,-1.3768895E-1,1E0,6.105858E-1,-8.567225E-2],"split_indices":[101,0,45,0,0],"split_type":[0,0,0,0,0],"sum_hessian":[1.162254E1,8.865397E0,2.7571428E0,1.5493823E0,1.2077605E0],"tree_param":{"num_deleted":"0","num_feature":"133","num_nodes":"5","size_leaf_vector":"1"}},{"base_weights":[7.6667406E-2,-1.4083469E-1,9.1141987E-1],"categories":[],"categories_nodes":[],"categories_segments":[],"categories_sizes":[],"default_left":[0,0,0],"id":80,"left_children":[1,-1,-1],"loss_changes":[2.1989803E1,0E0,0E0],"parents":[2147483647,0,0],"right_children":[2,-1,-1],"split_conditions":[1E0,-1.4083469E-1,9.1141987E-1],"split_indices":[111,0,0],"split_type":[0,0,0],"sum_hessian":[1.1715013E1,1.0601458E1,1.1135547E0],"tree_param":{"num_deleted":"0","num_feature":"133","num_nodes":"3","size_leaf_vector":"1"}},{"base_weights":[4.5985673E-3,-3.7751606E-1,5.3717154E-1,-1.3760842E-1,1.18100215E-2],"categories":[],"categories_nodes":[],"categories_segments":[],"categories_sizes":[],"default_left":[0,0,0,0,0],"id":81,"left_children":[1,3,-1,-1,-1],"loss_changes":[9.2626505E0,3.9676702E-1,0E0,0E0,0E0],"parents":[2147483647,0,0,1,1],"right_children":[2,4,-1,-1,-1],"split_conditions":[1E0,1E0,5.3717154E-1,-1.3760842E-1,1.18100215E-2],"split_indices":[31,0,0,0,0],"split_type":[0,0,0,0,0],"sum_hessian":[1.1582203E1,1.0190529E1,1.3916743E0,8.445633E0,1.7448963E0],"tree_param":{"num_deleted":"0","num_feature":"133","num_nodes":"5","size_leaf_vector":"1"}},{"base_weights":[-1.4667355E-1,3.9162427E-2,-1.2353145E-1,2.4205874E-1,-1.0543735E-1,1.21093296E-1,-7.9008505E-2],"categories":[],"categories_nodes":[],"categories_segments":[],"categories_sizes":[],"default_left":[0,0,0,0,0,0,0],"id":82,"left_children":[1,3,-1,5,-1,-1,-1],"loss_changes":[6.2425816E-1,7.325998E-1,0E0,5.938083E-1,0E0,0E0,0E0],"parents":[2147483647,0,0,1,1,3,3],"right_children":[2,4,-1,6,-1,-1,-1],"split_conditions":[1E0,1E0,-1.2353145E-1,1E0,-1.0543735E-1,1.21093296E-1,-7.9008505E-2],"split_indices":[41,123,0,101,0,0,0],"split_type":[0,0,0,0,0,0,0],"sum_hessian":[1.1344169E1,7.1701226E0,4.1740465E0,4.969291E0,2.2008314E0,3.9180417E0,1.0512495E0],"tree_param":{"num_deleted":"0","num_feature":"133","num_nodes":"7","size_leaf_vector":"1"}},{"base_weights":[6.395559E-2,-9.1646E-2,4.6031705E-1,9.165835E-1,-1.04940005E-1,4.552455E-1,-8.887341E-2],"categories":[],"categories_nodes":[],"categories_segments":[],"categories_sizes":[],"default_left":[0,0,0,0,0,0,0],"id":83,"left_children":[1,-1,3,5,-1,-1,-1],"loss_changes":[2.0463629E0,0E0,2.788783E0,3.7639492E0,0E0,0E0,0E0],"parents":[2147483647,0,0,2,2,3,3],"right_children":[2,-1,4,6,-1,-1,-1],"split_conditions":[1E0,-9.1646E-2,1E0,1E0,-1.04940005E-1,4.552455E-1,-8.887341E-2],"split_indices":[41,0,123,59,0,0,0],"split_type":[0,0,0,0,0,0,0],"sum_hessian":[1.2014462E1,6.337061E0,5.6774015E0,3.5478141E0,2.1295872E0,2.2044258E0,1.3433883E0],"tree_param":{"num_deleted":"0","num_feature":"133","num_nodes":"7","size_leaf_vector":"1"}},{"base_weights":[-1.2604854E-1,-9.542932E-2,2.1192224E-1,1.8937197E-1,-9.774565E-2],"categories":[],"categories_nodes":[],"categories_segments":[],"categories_sizes":[],"default_left":[0,0,0,0,0],"id":84,"left_children":[1,-1,3,-1,-1],"loss_changes":[8.2560366E-1,0E0,1.2953827E0,0E0,0E0],"parents":[2147483647,0,0,2,2],"right_children":[2,-1,4,-1,-1],"split_conditions":[1E0,-9.542932E-2,1E0,1.8937197E-1,-9.774565E-2],"split_indices":[45,0,41,0,0],"split_type":[0,0,0,0,0],"sum_hessian":[1.0681196E1,6.8484306E0,3.8327653E0,2.0558157E0,1.7769494E0],"tree_param":{"num_deleted":"0","num_feature":"133","num_nodes":"5","size_leaf_vector":"1"}},{"base_weights":[-1.22539975E-1,-1.0410299E-1,1.6188817E-1],"categories":[],"categories_nodes":[],"categories_segments":[],"categories_sizes":[],"default_left":[0,0,0],"id":85,"left_children":[1,-1,-1],"loss_changes":[1.9088266E0,0E0,0E0],"parents":[2147483647,0,0],"right_children":[2,-1,-1],"split_conditions":[1E0,-1.0410299E-1,1.6188817E-1],"split_indices":[101,0,0],"split_type":[0,0,0],"sum_hessian":[1.0582411E1,8.258714E0,2.323697E0],"tree_param":{"num_deleted":"0","num_feature":"133","num_nodes":"3","size_leaf_vector":"1"}},{"base_weights":[1.2552472E-3,-3.4275663E-1,6.746396E-1,-1.2784398E-1,-1.24686435E-1,4.855547E-1,-1.0424952E-1,1.9823268E-2,-8.6362116E-2],"categories":[],"categories_nodes":[],"categories_segments":[],"categories_sizes":[],"default_left":[0,0,0,0,0,0,0,0,0],"id":86,"left_children":[1,3,5,-1,7,-1,-1,-1,-1],"loss_changes":[3.148859E0,1.10515356E-1,4.996121E0,0E0,1.4052285E-1,0E0,0E0,0E0,0E0],"parents":[2147483647,0,0,1,1,2,2,4,4],"right_children":[2,4,6,-1,8,-1,-1,-1,-1],"split_conditions":[1E0,1E0,1E0,-1.2784398E-1,1E0,4.855547E-1,-1.0424952E-1,1.9823268E-2,-8.6362116E-2],"split_indices":[132,123,131,0,44,0,0,0,0],"split_type":[0,0,0,0,0,0,0,0,0],"sum_hessian":[1.1594837E1,7.999253E0,3.5955846E0,5.09627E0,2.9029827E0,1.5660142E0,2.0295703E0,1.6127633E0,1.2902194E0],"tree_param":{"num_deleted":"0","num_feature":"133","num_nodes":"9","size_leaf_vector":"1"}},{"base_weights":[-1.21041425E-1,-1.03263594E-1,5.0336605E-1,3.6724392E-1,-9.140123E-2],"categories":[],"categories_nodes":[],"categories_segments":[],"categories_sizes":[],"default_left":[0,0,0,0,0],"id":87,"left_children":[1,-1,3,-1,-1],"loss_changes":[1.7813948E0,0E0,2.3792205E0,0E0,0E0],"parents":[2147483647,0,0,2,2],"right_children":[2,-1,4,-1,-1],"split_conditions":[1E0,-1.03263594E-1,1E0,3.6724392E-1,-9.140123E-2],"split_indices":[19,0,123,0,0],"split_type":[0,0,0,0,0],"sum_hessian":[1.0540277E1,8.095565E0,2.4447117E0,1.0199438E0,1.4247679E0],"tree_param":{"num_deleted":"0","num_feature":"133","num_nodes":"5","size_leaf_vector":"1"}},{"base_weights":[-2.1927545E-2,1.6227134E-1,-1.1971224E-1,3.427001E-1,-1.025522E-1,1.5798038E-1,-8.875928E-2],"categories":[],"categories_nodes":[],"categories_segments":[],"categories_sizes":[],"default_left":[0,0,0,0,0,0,0],"id":88,"left_children":[1,3,-1,5,-1,-1,-1],"loss_changes":[9.826532E-1,9.8929983E-1,0E0,1.0436766E0,0E0,0E0,0E0],"parents":[2147483647,0,0,1,1,3,3],"right_children":[2,4,-1,6,-1,-1,-1],"split_conditions":[1E0,1E0,-1.1971224E-1,1E0,-1.025522E-1,1.5798038E-1,-8.875928E-2],"split_indices":[41,123,0,45,0,0,0],"split_type":[0,0,0,0,0,0,0],"sum_hessian":[1.2214075E1,8.588682E0,3.625393E0,6.560704E0,2.0279777E0,5.229879E0,1.3308254E0],"tree_param":{"num_deleted":"0","num_feature":"133","num_nodes":"7","size_leaf_vector":"1"}},{"base_weights":[-4.9236283E-2,-1.375392E-1,3.8478708E-1],"categories":[],"categories_nodes":[],"categories_segments":[],"categories_sizes":[],"default_left":[0,0,0],"id":89,"left_children":[1,-1,-1],"loss_changes":[7.055742E0,0E0,0E0],"parents":[2147483647,0,0],"right_children":[2,-1,-1],"split_conditions":[1E0,-1.375392E-1,3.8478708E-1],"split_indices":[14,0,0],"split_type":[0,0,0],"sum_hessian":[1.08666115E1,8.814146E0,2.0524657E0],"tree_param":{"num_deleted":"0","num_feature":"133","num_nodes":"3","size_leaf_vector":"1"}},{"base_weights":[-7.8495644E-2,9.417591E-2,-1.1971224E-1,2.690011E-1,-1.025522E-1,1.3019983E-1,-8.507102E-2],"categories":[],"categories_nodes":[],"categories_segments":[],"categories_sizes":[],"default_left":[0,0,0,0,0,0,0],"id":90,"left_children":[1,3,-1,5,-1,-1,-1],"loss_changes":[7.386588E-1,7.8112936E-1,0E0,7.6247996E-1,0E0,0E0,0E0],"parents":[2147483647,0,0,1,1,3,3],"right_children":[2,4,-1,6,-1,-1,-1],"split_conditions":[1E0,1E0,-1.1971224E-1,1E0,-1.025522E-1,1.3019983E-1,-8.507102E-2],"split_indices":[41,123,0,45,0,0,0],"split_type":[0,0,0,0,0,0,0],"sum_hessian":[1.1666505E1,8.041112E0,3.625393E0,6.0131345E0,2.0279777E0,4.7957115E0,1.2174227E0],"tree_param":{"num_deleted":"0","num_feature":"133","num_nodes":"7","size_leaf_vector":"1"}},{"base_weights":[1.5723858E-2,-1.3978253E-1,7.230375E-1],"categories":[],"categories_nodes":[],"categories_segments":[],"categories_sizes":[],"default_left":[0,0,0],"id":91,"left_children":[1,-1,-1],"loss_changes":[1.5271132E1,0E0,0E0],"parents":[2147483647,0,0],"right_children":[2,-1,-1],"split_conditions":[1E0,-1.3978253E-1,7.230375E-1],"split_indices":[91,0,0],"split_type":[0,0,0],"sum_hessian":[1.1267535E1,1.0051038E1,1.2164966E0],"tree_param":{"num_deleted":"0","num_feature":"133","num_nodes":"3","size_leaf_vector":"1"}},{"base_weights":[7.2330516E-3,-1.372117E-1,1.0161103E0,5.9288764E-1,-9.6030116E-2],"categories":[],"categories_nodes":[],"categories_segments":[],"categories_sizes":[],"default_left":[0,0,0,0,0],"id":92,"left_children":[1,-1,3,-1,-1],"loss_changes":[6.3198447E0,0E0,6.084214E0,0E0,0E0],"parents":[2147483647,0,0,2,2],"right_children":[2,-1,4,-1,-1],"split_conditions":[1E0,-1.372117E-1,1E0,5.9288764E-1,-9.6030116E-2],"split_indices":[72,0,41,0,0],"split_type":[0,0,0,0,0],"sum_hessian":[1.1491429E1,8.242341E0,3.249088E0,1.6118258E0,1.6372622E0],"tree_param":{"num_deleted":"0","num_feature":"133","num_nodes":"5","size_leaf_vector":"1"}},{"base_weights":[1.1514815E-1,-1.4062387E-1,7.3615885E-1],"categories":[],"categories_nodes":[],"categories_segments":[],"categories_sizes":[],"default_left":[0,0,0],"id":93,"left_children":[1,-1,-1],"loss_changes":[1.9400522E1,0E0,0E0],"parents":[2147483647,0,0],"right_children":[2,-1,-1],"split_conditions":[1E0,-1.4062387E-1,7.3615885E-1],"split_indices":[22,0,0],"split_type":[0,0,0],"sum_hessian":[1.2364666E1,1.0534216E1,1.8304502E0],"tree_param":{"num_deleted":"0","num_feature":"133","num_nodes":"3","size_leaf_vector":"1"}},{"base_weights":[1.387782E-1,-1.4350301E-1,7.457184E-1],"categories":[],"categories_nodes":[],"categories_segments":[],"categories_sizes":[],"default_left":[0,0,0],"id":94,"left_children":[1,-1,-1],"loss_changes":[2.1808325E1,0E0,0E0],"parents":[2147483647,0,0],"right_children":[2,-1,-1],"split_conditions":[1E0,-1.4350301E-1,7.457184E-1],"split_indices":[118,0,0],"split_type":[0,0,0],"sum_hessian":[1.3236369E1,1.1110968E1,2.1254015E0],"tree_param":{"num_deleted":"0","num_feature":"133","num_nodes":"3","size_leaf_vector":"1"}},{"base_weights":[1.6006835E-1,-1.4065167E-1,6.646324E-1],"categories":[],"categories_nodes":[],"categories_segments":[],"categories_sizes":[],"default_left":[0,0,0],"id":95,"left_children":[1,-1,-1],"loss_changes":[1.8894054E1,0E0,0E0],"parents":[2147483647,0,0],"right_children":[2,-1,-1],"split_conditions":[1E0,-1.4065167E-1,6.646324E-1],"split_indices":[76,0,0],"split_type":[0,0,0],"sum_hessian":[1.2813115E1,1.0402142E1,2.410973E0],"tree_param":{"num_deleted":"0","num_feature":"133","num_nodes":"3","size_leaf_vector":"1"}},{"base_weights":[-4.841554E-2,-3.7031344E-1,4.5550573E-1,-1.3756453E-1,7.166172E-2],"categories":[],"categories_nodes":[],"categories_segments":[],"categories_sizes":[],"default_left":[0,0,0,0,0],"id":96,"left_children":[1,3,-1,-1,-1],"loss_changes":[6.5492544E0,6.82076E-1,0E0,0E0,0E0],"parents":[2147483647,0,0,1,1],"right_children":[2,4,-1,-1,-1],"split_conditions":[1E0,1E0,4.5550573E-1,-1.3756453E-1,7.166172E-2],"split_indices":[37,128,0,0,0],"split_type":[0,0,0,0,0],"sum_hessian":[1.0870954E1,9.651636E0,1.2193171E0,8.646541E0,1.0050952E0],"tree_param":{"num_deleted":"0","num_feature":"133","num_nodes":"5","size_leaf_vector":"1"}},{"base_weights":[-2.1927545E-2,1.6227134E-1,-1.1971224E-1,3.427001E-1,-1.025522E-1,1.5798038E-1,-8.875928E-2],"categories":[],"categories_nodes":[],"categories_segments":[],"categories_sizes":[],"default_left":[0,0,0,0,0,0,0],"id":97,"left_children":[1,3,-1,5,-1,-1,-1],"loss_changes":[9.826532E-1,9.8929983E-1,0E0,1.0436766E0,0E0,0E0,0E0],"parents":[2147483647,0,0,1,1,3,3],"right_children":[2,4,-1,6,-1,-1,-1],"split_conditions":[1E0,1E0,-1.1971224E-1,1E0,-1.025522E-1,1.5798038E-1,-8.875928E-2],"split_indices":[41,123,0,45,0,0,0],"split_type":[0,0,0,0,0,0,0],"sum_hessian":[1.2214075E1,8.588682E0,3.625393E0,6.560704E0,2.0279777E0,5.229879E0,1.3308254E0],"tree_param":{"num_deleted":"0","num_feature":"133","num_nodes":"7","size_leaf_vector":"1"}},{"base_weights":[-5.143495E-2,-3.5512212E-1,8.6643803E-1,-1.3411935E-1,2.372759E-2,5.160585E-1,-8.626783E-2],"categories":[],"categories_nodes":[],"categories_segments":[],"categories_sizes":[],"default_left":[0,0,0,0,0,0,0],"id":98,"left_children":[1,3,5,-1,-1,-1,-1],"loss_changes":[3.6367211E0,4.219339E-1,3.7063034E0,0E0,0E0,0E0,0E0],"parents":[2147483647,0,0,1,1,2,2],"right_children":[2,4,6,-1,-1,-1,-1],"split_conditions":[1E0,1E0,1E0,-1.3411935E-1,2.372759E-2,5.160585E-1,-8.626783E-2],"split_indices":[55,101,41,0,0,0,0],"split_type":[0,0,0,0,0,0,0],"sum_hessian":[1.094287E1,8.683089E0,2.259781E0,7.141353E0,1.5417356E0,1.0168493E0,1.2429315E0],"tree_param":{"num_deleted":"0","num_feature":"133","num_nodes":"7","size_leaf_vector":"1"}},{"base_weights":[-1.1969095E-1,-3.525288E-1,2.0182687E-1,-1.3411935E-1,3.4230776E-2],"categories":[],"categories_nodes":[],"categories_segments":[],"categories_sizes":[],"default_left":[0,0,0,0,0],"id":99,"left_children":[1,3,-1,-1,-1],"loss_changes":[2.359441E0,4.7212565E-1,0E0,0E0,0E0],"parents":[2147483647,0,0,1,1],"right_children":[2,4,-1,-1,-1],"split_conditions":[1E0,1E0,2.0182687E-1,-1.3411935E-1,3.4230776E-2],"split_indices":[55,101,0,0,0],"split_type":[0,0,0,0,0],"sum_hessian":[1.0502117E1,8.5462E0,1.9559166E0,7.141353E0,1.4048469E0],"tree_param":{"num_deleted":"0","num_feature":"133","num_nodes":"5","size_leaf_vector":"1"}},{"base_weights":[-5.3645458E-2,-1.353991E-1,7.826724E-1,3.8584745E-1,-8.3624154E-2],"categories":[],"categories_nodes":[],"categories_segments":[],"categories_sizes":[],"default_left":[0,0,0,0,0],"id":100,"left_children":[1,-1,3,-1,-1],"loss_changes":[4.3301044E0,0E0,2.6133063E0,0E0,0E0],"parents":[2147483647,0,0,2,2],"right_children":[2,-1,4,-1,-1],"split_conditions":[1E0,-1.353991E-1,1E0,3.8584745E-1,-8.3624154E-2],"split_indices":[26,0,41,0,0],"split_type":[0,0,0,0,0],"sum_hessian":[1.0957212E1,7.7379894E0,3.219223E0,2.039873E0,1.17935E0],"tree_param":{"num_deleted":"0","num_feature":"133","num_nodes":"5","size_leaf_vector":"1"}},{"base_weights":[-1.20102525E-1,-1.3599567E-1,7.980219E-1,4.805278E-1,-8.8670835E-2],"categories":[],"categories_nodes":[],"categories_segments":[],"categories_sizes":[],"default_left":[0,0,0,0,0],"id":101,"left_children":[1,-1,3,-1,-1],"loss_changes":[3.8739815E0,0E0,3.4788888E0,0E0,0E0],"parents":[2147483647,0,0,2,2],"right_children":[2,-1,4,-1,-1],"split_conditions":[1E0,-1.3599567E-1,1E0,4.805278E-1,-8.8670835E-2],"split_indices":[31,0,72,0,0],"split_type":[0,0,0,0,0],"sum_hessian":[1.0480328E1,8.060993E0,2.4193337E0,1.1266339E0,1.2926998E0],"tree_param":{"num_deleted":"0","num_feature":"133","num_nodes":"5","size_leaf_vector":"1"}},{"base_weights":[-5.08318E-2,-3.6298385E-1,3.4041256E-1,-1.3591495E-1,4.6586726E-2],"categories":[],"categories_nodes":[],"categories_segments":[],"categories_sizes":[],"default_left":[0,0,0,0,0],"id":102,"left_children":[1,3,-1,-1,-1],"loss_changes":[4.8254404E0,5.463954E-1,0E0,0E0,0E0],"parents":[2147483647,0,0,1,1],"right_children":[2,4,-1,-1,-1],"split_conditions":[1E0,1E0,3.4041256E-1,-1.3591495E-1,4.6586726E-2],"split_indices":[14,18,0,0,0],"split_type":[0,0,0,0,0],"sum_hessian":[1.092632E1,9.198251E0,1.7280697E0,7.9436436E0,1.2546067E0],"tree_param":{"num_deleted":"0","num_feature":"133","num_nodes":"5","size_leaf_vector":"1"}},{"base_weights":[1.2101756E-1,-1.3905102E-1,1.7221445E0,7.926187E-1,-8.200033E-2],"categories":[],"categories_nodes":[],"categories_segments":[],"categories_sizes":[],"default_left":[0,0,0,0,0],"id":103,"left_children":[1,-1,3,-1,-1],"loss_changes":[1.3225111E1,0E0,7.6300287E0,0E0,0E0],"parents":[2147483647,0,0,2,2],"right_children":[2,-1,4,-1,-1],"split_conditions":[1E0,-1.3905102E-1,1E0,7.926187E-1,-8.200033E-2],"split_indices":[65,0,41,0,0],"split_type":[0,0,0,0,0],"sum_hessian":[1.2278123E1,9.515008E0,2.7631152E0,1.6694657E0,1.0936495E0],"tree_param":{"num_deleted":"0","num_feature":"133","num_nodes":"5","size_leaf_vector":"1"}},{"base_weights":[6.2612E-2,-1.4037462E-1,7.036155E-1],"categories":[],"categories_nodes":[],"categories_segments":[],"categories_sizes":[],"default_left":[0,0,0],"id":104,"left_children":[1,-1,-1],"loss_changes":[1.6685583E1,0E0,0E0],"parents":[2147483647,0,0],"right_children":[2,-1,-1],"split_conditions":[1E0,-1.4037462E-1,7.036155E-1],"split_indices":[88,0,0],"split_type":[0,0,0],"sum_hessian":[1.1871342E1,1.0277763E1,1.5935785E0],"tree_param":{"num_deleted":"0","num_feature":"133","num_nodes":"3","size_leaf_vector":"1"}},{"base_weights":[1.0045346E-2,-1.3463621E-1,7.8011703E-1,6.813742E-1,-1.1431088E-1],"categories":[],"categories_nodes":[],"categories_segments":[],"categories_sizes":[],"default_left":[0,0,0,0,0],"id":105,"left_children":[1,-1,3,-1,-1],"loss_changes":[4.718182E0,0E0,9.489558E0,0E0,0E0],"parents":[2147483647,0,0,2,2],"right_children":[2,-1,4,-1,-1],"split_conditions":[1E0,-1.3463621E-1,1E0,6.813742E-1,-1.1431088E-1],"split_indices":[132,0,0,0,0],"split_type":[0,0,0,0,0],"sum_hessian":[1.1362452E1,7.3815236E0,3.9809282E0,1.3242831E0,2.656645E0],"tree_param":{"num_deleted":"0","num_feature":"133","num_nodes":"5","size_leaf_vector":"1"}},{"base_weights":[1.1228768E-2,-1.357514E-1,9.476193E-1,4.4150153E-1,-8.554342E-2],"categories":[],"categories_nodes":[],"categories_segments":[],"categories_sizes":[],"default_left":[0,0,0,0,0],"id":106,"left_children":[1,-1,3,-1,-1],"loss_changes":[5.786228E0,0E0,3.2683296E0,0E0,0E0],"parents":[2147483647,0,0,2,2],"right_children":[2,-1,4,-1,-1],"split_conditions":[1E0,-1.357514E-1,1E0,4.4150153E-1,-8.554342E-2],"split_indices":[28,0,45,0,0],"split_type":[0,0,0,0,0],"sum_hessian":[1.13376045E1,7.928092E0,3.4095123E0,2.2564774E0,1.1530349E0],"tree_param":{"num_deleted":"0","num_feature":"133","num_nodes":"5","size_leaf_vector":"1"}},{"base_weights":[5.665161E-3,-1.3627163E-1,9.352988E-1,-8.4379055E-2,1.4518377E0,4.6517815E-2,6.517694E-1],"categories":[],"categories_nodes":[],"categories_segments":[],"categories_sizes":[],"default_left":[0,0,0,0,0,0,0],"id":107,"left_children":[1,-1,3,-1,5,-1,-1],"loss_changes":[5.7788534E0,0E0,3.2183304E0,0E0,2.7484841E0,0E0,0E0],"parents":[2147483647,0,0,2,2,4,4],"right_children":[2,-1,4,-1,6,-1,-1],"split_conditions":[1E0,-1.3627163E-1,1E0,-8.4379055E-2,1E0,4.6517815E-2,6.517694E-1],"split_indices":[131,0,41,0,56,0,0],"split_type":[0,0,0,0,0,0,0],"sum_hessian":[1.1522754E1,8.051121E0,3.471633E0,1.1704501E0,2.3011827E0,1.2561607E0,1.0450221E0],"tree_param":{"num_deleted":"0","num_feature":"133","num_nodes":"7","size_leaf_vector":"1"}},{"base_weights":[-5.4161128E-2,-1.3562071E-1,8.2041705E-1,5.3159934E-1,-9.908786E-2],"categories":[],"categories_nodes":[],"categories_segments":[],"categories_sizes":[],"default_left":[0,0,0,0,0],"id":108,"left_children":[1,-1,3,-1,-1],"loss_changes":[4.5282807E0,0E0,5.0648346E0,0E0,0E0],"parents":[2147483647,0,0,2,2],"right_children":[2,-1,4,-1,-1],"split_conditions":[1E0,-1.3562071E-1,1E0,5.3159934E-1,-9.908786E-2],"split_indices":[18,0,26,0,0],"split_type":[0,0,0,0,0],"sum_hessian":[1.09464855E1,7.8555408E0,3.0909445E0,1.3963307E0,1.6946138E0],"tree_param":{"num_deleted":"0","num_feature":"133","num_nodes":"5","size_leaf_vector":"1"}},{"base_weights":[1.4924712E-2,-1.4001305E-1,7.6479846E-1],"categories":[],"categories_nodes":[],"categories_segments":[],"categories_sizes":[],"default_left":[0,0,0],"id":109,"left_children":[1,-1,-1],"loss_changes":[1.6193058E1,0E0,0E0],"parents":[2147483647,0,0],"right_children":[2,-1,-1],"split_conditions":[1E0,-1.4001305E-1,7.6479846E-1],"split_indices":[71,0,0],"split_type":[0,0,0],"sum_hessian":[1.1291137E1,1.0173607E1,1.1175296E0],"tree_param":{"num_deleted":"0","num_feature":"133","num_nodes":"3","size_leaf_vector":"1"}},{"base_weights":[1.151815E-1,-1.4199032E-1,7.685961E-1],"categories":[],"categories_nodes":[],"categories_segments":[],"categories_sizes":[],"default_left":[0,0,0],"id":110,"left_children":[1,-1,-1],"loss_changes":[2.0363312E1,0E0,0E0],"parents":[2147483647,0,0],"right_children":[2,-1,-1],"split_conditions":[1E0,-1.4199032E-1,7.685961E-1],"split_indices":[80,0,0],"split_type":[0,0,0],"sum_hessian":[1.2300014E1,1.056547E1,1.7345433E0],"tree_param":{"num_deleted":"0","num_feature":"133","num_nodes":"3","size_leaf_vector":"1"}},{"base_weights":[1.0248401E-1,-1.4196016E-1,6.8499947E-1],"categories":[],"categories_nodes":[],"categories_segments":[],"categories_sizes":[],"default_left":[0,0,0],"id":111,"left_children":[1,-1,-1],"loss_changes":[1.8039663E1,0E0,0E0],"parents":[2147483647,0,0],"right_children":[2,-1,-1],"split_conditions":[1E0,-1.4196016E-1,6.8499947E-1],"split_indices":[15,0,0],"split_type":[0,0,0],"sum_hessian":[1.2508132E1,1.0515377E1,1.9927546E0],"tree_param":{"num_deleted":"0","num_feature":"133","num_nodes":"3","size_leaf_vector":"1"}},{"base_weights":[-5.9145138E-2,-3.4894034E-1,6.749454E-1,-1.3038613E-1,-8.997296E-2,1.895626E-2,3.2795733E-1,5.746904E-2,-9.022671E-2],"categories":[],"categories_nodes":[],"categories_segments":[],"categories_sizes":[],"default_left":[0,0,0,0,0,0,0,0,0],"id":112,"left_children":[1,3,5,-1,7,-1,-1,-1,-1],"loss_changes":[2.8167317E0,1.6854441E-1,8.968097E-1,0E0,2.7051198E-1,0E0,0E0,0E0,0E0],"parents":[2147483647,0,0,1,1,2,2,4,4],"right_children":[2,4,6,-1,8,-1,-1,-1,-1],"split_conditions":[1E0,1E0,1E0,-1.3038613E-1,1E0,1.895626E-2,3.2795733E-1,5.746904E-2,-9.022671E-2],"split_indices":[101,45,45,0,41,0,0,0,0],"split_type":[0,0,0,0,0,0,0,0,0],"sum_hessian":[1.1133428E1,8.358446E0,2.7749813E0,5.7708597E0,2.5875864E0,1.5942247E0,1.1807566E0,1.1468937E0,1.4406928E0],"tree_param":{"num_deleted":"0","num_feature":"133","num_nodes":"9","size_leaf_vector":"1"}},{"base_weights":[1.2268E-1,-3.7357804E-1,1.6040303E0,-1.3800801E-1,6.076542E-2,8.481007E-1,-8.719064E-2],"categories":[],"categories_nodes":[],"categories_segments":[],"categories_sizes":[],"default_left":[0,0,0,0,0,0,0],"id":113,"left_children":[1,3,5,-1,-1,-1,-1],"loss_changes":[1.0368943E1,6.2938297E-1,8.986732E0,0E0,0E0,0E0,0E0],"parents":[2147483647,0,0,1,1,2,2],"right_children":[2,4,6,-1,-1,-1,-1],"split_conditions":[1E0,1E0,1E0,-1.3800801E-1,6.076542E-2,8.481007E-1,-8.719064E-2],"split_indices":[28,132,131,0,0,0,0],"split_type":[0,0,0,0,0,0,0],"sum_hessian":[1.228974E1,9.765928E0,2.523811E0,8.6669655E0,1.0989629E0,1.2347304E0,1.2890809E0],"tree_param":{"num_deleted":"0","num_feature":"133","num_nodes":"7","size_leaf_vector":"1"}},{"base_weights":[6.683379E-2,-1.3831463E-1,1.4502649E0,-9.730599E-2,8.97135E-1],"categories":[],"categories_nodes":[],"categories_segments":[],"categories_sizes":[],"default_left":[0,0,0,0,0],"id":114,"left_children":[1,-1,3,-1,-1],"loss_changes":[1.008192E1,0E0,1.135964E1,0E0,0E0],"parents":[2147483647,0,0,2,2],"right_children":[2,-1,4,-1,-1],"split_conditions":[1E0,-1.3831463E-1,1E0,-9.730599E-2,8.97135E-1],"split_indices":[69,0,110,0,0],"split_type":[0,0,0,0,0],"sum_hessian":[1.1889792E1,9.088561E0,2.8012314E0,1.6683481E0,1.1328832E0],"tree_param":{"num_deleted":"0","num_feature":"133","num_nodes":"5","size_leaf_vector":"1"}},{"base_weights":[5.968037E-2,-1.423555E-1,8.492869E-1],"categories":[],"categories_nodes":[],"categories_segments":[],"categories_sizes":[],"default_left":[0,0,0],"id":115,"left_children":[1,-1,-1],"loss_changes":[2.0470507E1,0E0,0E0],"parents":[2147483647,0,0],"right_children":[2,-1,-1],"split_conditions":[1E0,-1.423555E-1,8.492869E-1],"split_indices":[122,0,0],"split_type":[0,0,0],"sum_hessian":[1.1920167E1,1.068858E1,1.231587E0],"tree_param":{"num_deleted":"0","num_feature":"133","num_nodes":"3","size_leaf_vector":"1"}},{"base_weights":[-1.2196213E-1,-1.042427E-1,5.531265E-1,3.519467E-1,-8.505351E-2],"categories":[],"categories_nodes":[],"categories_segments":[],"categories_sizes":[],"default_left":[0,0,0,0,0],"id":116,"left_children":[1,-1,3,-1,-1],"loss_changes":[1.9531354E0,0E0,2.0351963E0,0E0,0E0],"parents":[2147483647,0,0,2,2],"right_children":[2,-1,4,-1,-1],"split_conditions":[1E0,-1.042427E-1,1E0,3.519467E-1,-8.505351E-2],"split_indices":[56,0,41,0,0],"split_type":[0,0,0,0,0],"sum_hessian":[1.0566728E1,8.284558E0,2.2821696E0,1.0797474E0,1.2024221E0],"tree_param":{"num_deleted":"0","num_feature":"133","num_nodes":"5","size_leaf_vector":"1"}},{"base_weights":[-6.4346485E-2,-3.3368054E-1,4.346953E-1,-1.2644391E-1,-1.1080659E-1,8.766473E-1,-9.259613E-2,3.8562886E-2,-8.962996E-2,4.8294533E-2,3.6969328E-1],"categories":[],"categories_nodes":[],"categories_segments":[],"categories_sizes":[],"default_left":[0,0,0,0,0,0,0,0,0,0,0],"id":117,"left_children":[1,3,5,-1,7,9,-1,-1,-1,-1,-1],"loss_changes":[1.7942281E0,1.2030572E-1,1.8261921E0,0E0,2.0794913E-1,6.2377167E-1,0E0,0E0,0E0,0E0,0E0],"parents":[2147483647,0,0,1,1,2,2,4,4,5,5],"right_children":[2,4,6,-1,8,10,-1,-1,-1,-1,-1],"split_conditions":[1E0,1E0,1E0,-1.2644391E-1,1E0,1E0,-9.259613E-2,3.8562886E-2,-8.962996E-2,4.8294533E-2,3.6969328E-1],"split_indices":[44,123,45,0,0,123,0,0,0,0,0],"split_type":[0,0,0,0,0,0,0,0,0,0,0],"sum_hessian":[1.1269858E1,7.5347133E0,3.735145E0,4.7660565E0,2.7686567E0,2.2299974E0,1.5051477E0,1.3568937E0,1.4117631E0,1.2225696E0,1.0074279E0],"tree_param":{"num_deleted":"0","num_feature":"133","num_nodes":"11","size_leaf_vector":"1"}},{"base_weights":[-5.8137355E-3,-3.8408986E-1,5.9834355E-1,-1.3573402E-1,-1.4070022E-1,3.9285775E-2,-9.766706E-2],"categories":[],"categories_nodes":[],"categories_segments":[],"categories_sizes":[],"default_left":[0,0,0,0,0,0,0],"id":118,"left_children":[1,3,-1,-1,5,-1,-1],"loss_changes":[1.0393263E1,1.2830794E-1,0E0,0E0,2.4256298E-1,0E0,0E0],"parents":[2147483647,0,0,1,1,4,4],"right_children":[2,4,-1,-1,6,-1,-1],"split_conditions":[1E0,1E0,5.9834355E-1,-1.3573402E-1,1E0,3.9285775E-2,-9.766706E-2],"split_indices":[61,44,0,0,45,0,0],"split_type":[0,0,0,0,0,0,0],"sum_hessian":[1.1723244E1,1.0538321E1,1.184923E0,7.556976E0,2.9813447E0,1.3253294E0,1.6560154E0],"tree_param":{"num_deleted":"0","num_feature":"133","num_nodes":"7","size_leaf_vector":"1"}},{"base_weights":[5.841688E-3,-3.4276804E-1,6.7516977E-1,-1.316693E-1,1.31968E-2,5.142216E-1,-1.0591588E-1],"categories":[],"categories_nodes":[],"categories_segments":[],"categories_sizes":[],"default_left":[0,0,0,0,0,0,0],"id":119,"left_children":[1,3,5,-1,-1,-1,-1],"loss_changes":[3.1417692E0,3.488816E-1,5.527807E0,0E0,0E0,0E0,0E0],"parents":[2147483647,0,0,1,1,2,2],"right_children":[2,4,6,-1,-1,-1,-1],"split_conditions":[1E0,1E0,1E0,-1.316693E-1,1.31968E-2,5.142216E-1,-1.0591588E-1],"split_indices":[60,0,131,0,0,0,0],"split_type":[0,0,0,0,0,0,0],"sum_hessian":[1.1472845E1,7.8645835E0,3.608261E0,6.1909842E0,1.6735994E0,1.4630208E0,2.14524E0],"tree_param":{"num_deleted":"0","num_feature":"133","num_nodes":"7","size_leaf_vector":"1"}},{"base_weights":[1.0746356E-2,-1.3784845E-1,1.3674865E0,5.1256474E-2,5.744208E-1],"categories":[],"categories_nodes":[],"categories_segments":[],"categories_sizes":[],"default_left":[0,0,0,0,0],"id":120,"left_children":[1,-1,3,-1,-1],"loss_changes":[8.517348E0,0E0,1.9217443E0,0E0,0E0],"parents":[2147483647,0,0,2,2],"right_children":[2,-1,4,-1,-1],"split_conditions":[1E0,-1.3784845E-1,1E0,5.1256474E-2,5.744208E-1],"split_indices":[14,0,19,0,0],"split_type":[0,0,0,0,0],"sum_hessian":[1.1365291E1,8.931121E0,2.4341695E0,1.1756551E0,1.2585145E0],"tree_param":{"num_deleted":"0","num_feature":"133","num_nodes":"5","size_leaf_vector":"1"}},{"base_weights":[-1.6958243E-3,-3.751972E-1,4.0590116E-1,-1.3401365E-1,-1.0705623E-1,2.7961625E-2,-8.546468E-2],"categories":[],"categories_nodes":[],"categories_segments":[],"categories_sizes":[],"default_left":[0,0,0,0,0,0,0],"id":121,"left_children":[1,3,-1,-1,5,-1,-1],"loss_changes":[6.88555E0,1.5666437E-1,0E0,0E0,1.5334609E-1,0E0,0E0],"parents":[2147483647,0,0,1,1,4,4],"right_children":[2,4,-1,-1,6,-1,-1],"split_conditions":[1E0,1E0,4.0590116E-1,-1.3401365E-1,1E0,2.7961625E-2,-8.546468E-2],"split_indices":[56,101,0,0,55,0,0],"split_type":[0,0,0,0,0,0,0],"sum_hessian":[1.1605002E1,9.663688E0,1.9413147E0,7.1032457E0,2.5604422E0,1.4280652E0,1.132377E0],"tree_param":{"num_deleted":"0","num_feature":"133","num_nodes":"7","size_leaf_vector":"1"}},{"base_weights":[7.500997E-2,-1.4033134E-1,8.01172E-1],"categories":[],"categories_nodes":[],"categories_segments":[],"categories_sizes":[],"default_left":[0,0,0],"id":122,"left_children":[1,-1,-1],"loss_changes":[1.9096922E1,0E0,0E0],"parents":[2147483647,0,0],"right_children":[2,-1,-1],"split_conditions":[1E0,-1.4033134E-1,8.01172E-1],"split_indices":[11,0,0],"split_type":[0,0,0],"sum_hessian":[1.1668525E1,1.0328435E1,1.3400894E0],"tree_param":{"num_deleted":"0","num_feature":"133","num_nodes":"3","size_leaf_vector":"1"}},{"base_weights":[8.761798E-3,-1.379799E-1,1.1981354E0,-9.287942E-2,7.064347E-1],"categories":[],"categories_nodes":[],"categories_segments":[],"categories_sizes":[],"default_left":[0,0,0,0,0],"id":123,"left_children":[1,-1,3,-1,-1],"loss_changes":[7.4912767E0,0E0,7.3500853E0,0E0,0E0],"parents":[2147483647,0,0,2,2],"right_children":[2,-1,4,-1,-1],"split_conditions":[1E0,-1.379799E-1,1E0,-9.287942E-2,7.064347E-1],"split_indices":[0,0,45,0,0],"split_type":[0,0,0,0,0],"sum_hessian":[1.144986E1,8.653203E0,2.7966573E0,1.5319865E0,1.264671E0],"tree_param":{"num_deleted":"0","num_feature":"133","num_nodes":"5","size_leaf_vector":"1"}},{"base_weights":[-1.411655E-1,1.5427551E-2,-1.1971224E-1,1.7972407E-1,-1.025522E-1,9.687367E-2,-8.123851E-2],"categories":[],"categories_nodes":[],"categories_segments":[],"categories_sizes":[],"default_left":[0,0,0,0,0,0,0],"id":124,"left_children":[1,3,-1,5,-1,-1,-1],"loss_changes":[4.9654517E-1,5.61456E-1,0E0,5.06141E-1,0E0,0E0,0E0],"parents":[2147483647,0,0,1,1,3,3],"right_children":[2,4,-1,6,-1,-1,-1],"split_conditions":[1E0,1E0,-1.1971224E-1,1E0,-1.025522E-1,9.687367E-2,-8.123851E-2],"split_indices":[41,123,0,45,0,0,0],"split_type":[0,0,0,0,0,0,0],"sum_hessian":[1.1143908E1,7.518514E0,3.625393E0,5.4905367E0,2.0279777E0,4.3812814E0,1.1092552E0],"tree_param":{"num_deleted":"0","num_feature":"133","num_nodes":"7","size_leaf_vector":"1"}},{"base_weights":[4.5911364E-2,2.821855E-1,-1.2268791E-1,-5.9468772E-2,6.484763E-1,1.0156395E0,-8.831642E-2,4.5179567E-1,-7.924336E-2],"categories":[],"categories_nodes":[],"categories_segments":[],"categories_sizes":[],"default_left":[0,0,0,0,0,0,0,0,0],"id":125,"left_children":[1,3,-1,-1,5,7,-1,-1,-1],"loss_changes":[1.5537444E0,1.7826264E0,0E0,0E0,2.2263577E0,3.0533872E0,0E0,0E0,0E0],"parents":[2147483647,0,0,1,1,4,4,5,5],"right_children":[2,4,-1,-1,6,8,-1,-1,-1],"split_conditions":[1E0,1E0,-1.2268791E-1,-5.9468772E-2,1E0,1E0,-8.831642E-2,4.5179567E-1,-7.924336E-2],"split_indices":[123,41,0,0,64,1,0,0,0],"split_type":[0,0,0,0,0,0,0,0,0],"sum_hessian":[1.2383129E1,8.3997E0,3.9834287E0,3.8322585E0,4.5674415E0,3.2317662E0,1.3356754E0,2.2087424E0,1.0230238E0],"tree_param":{"num_deleted":"0","num_feature":"133","num_nodes":"9","size_leaf_vector":"1"}},{"base_weights":[-1.1321622E-1,-9.1308475E-2,1.941199E-1,1.5463395E-1,-9.26506E-2],"categories":[],"categories_nodes":[],"categories_segments":[],"categories_sizes":[],"default_left":[0,0,0,0,0],"id":126,"left_children":[1,-1,3,-1,-1],"loss_changes":[7.2187793E-1,0E0,9.570514E-1,0E0,0E0],"parents":[2147483647,0,0,2,2],"right_children":[2,-1,4,-1,-1],"split_conditions":[1E0,-9.1308475E-2,1E0,1.5463395E-1,-9.26506E-2],"split_indices":[45,0,41,0,0],"split_type":[0,0,0,0,0],"sum_hessian":[1.0282415E1,6.3455358E0,3.9368792E0,2.3870265E0,1.5498525E0],"tree_param":{"num_deleted":"0","num_feature":"133","num_nodes":"5","size_leaf_vector":"1"}},{"base_weights":[-1.0870242E-1,-9.9435635E-2,4.344674E-1,2.501836E-1,-8.1249095E-2],"categories":[],"categories_nodes":[],"categories_segments":[],"categories_sizes":[],"default_left":[0,0,0,0,0],"id":127,"left_children":[1,-1,3,-1,-1],"loss_changes":[1.4949448E0,0E0,1.2627041E0,0E0,0E0],"parents":[2147483647,0,0,2,2],"right_children":[2,-1,4,-1,-1],"split_conditions":[1E0,-9.9435635E-2,1E0,2.501836E-1,-8.1249095E-2],"split_indices":[101,0,45,0,0],"split_type":[0,0,0,0,0],"sum_hessian":[1.016563E1,7.4856186E0,2.6800113E0,1.5944941E0,1.0855172E0],"tree_param":{"num_deleted":"0","num_feature":"133","num_nodes":"5","size_leaf_vector":"1"}},{"base_weights":[-2.6773561E-3,-1.4022484E-1,6.371909E-1],"categories":[],"categories_nodes":[],"categories_segments":[],"categories_sizes":[],"default_left":[0,0,0],"id":128,"left_children":[1,-1,-1],"loss_changes":[1.336953E1,0E0,0E0],"parents":[2147483647,0,0],"right_children":[2,-1,-1],"split_conditions":[1E0,-1.4022484E-1,6.371909E-1],"split_indices":[32,0,0],"split_type":[0,0,0],"sum_hessian":[1.1522826E1,1.0096611E1,1.426215E0],"tree_param":{"num_deleted":"0","num_feature":"133","num_nodes":"3","size_leaf_vector":"1"}},{"base_weights":[-1.03844084E-1,-9.889111E-2,4.441174E-1,3.397001E-1,-9.373386E-2],"categories":[],"categories_nodes":[],"categories_segments":[],"categories_sizes":[],"default_left":[0,0,0,0,0],"id":129,"left_children":[1,-1,3,-1,-1],"loss_changes":[1.5124006E0,0E0,2.2531385E0,0E0,0E0],"parents":[2147483647,0,0,2,2],"right_children":[2,-1,4,-1,-1],"split_conditions":[1E0,-9.889111E-2,1E0,3.397001E-1,-9.373386E-2],"split_indices":[19,0,44,0,0],"split_type":[0,0,0,0,0],"sum_hessian":[1.0040564E1,7.392741E0,2.647822E0,1.1264523E0,1.5213696E0],"tree_param":{"num_deleted":"0","num_feature":"133","num_nodes":"5","size_leaf_vector":"1"}},{"base_weights":[-3.3782654E-2,1.1043163E-1,-1.1560559E-1,2.463166E-1,-9.939282E-2,3.808131E-1,-8.677062E-2,1.5935746E-1,-7.927427E-2],"categories":[],"categories_nodes":[],"categories_segments":[],"categories_sizes":[],"default_left":[0,0,0,0,0,0,0,0,0],"id":130,"left_children":[1,3,-1,5,-1,7,-1,-1,-1],"loss_changes":[7.2572374E-1,7.018068E-1,0E0,7.2060794E-1,0E0,8.39334E-1,0E0,0E0,0E0],"parents":[2147483647,0,0,1,1,3,3,5,5],"right_children":[2,4,-1,6,-1,8,-1,-1,-1],"split_conditions":[1E0,1E0,-1.1560559E-1,1E0,-9.939282E-2,1E0,-8.677062E-2,1.5935746E-1,-7.927427E-2],"split_indices":[41,123,0,101,0,44,0,0,0],"split_type":[0,0,0,0,0,0,0,0,0],"sum_hessian":[1.24743805E1,9.3321905E0,3.1421897E0,7.4751406E0,1.8570495E0,6.205619E0,1.2695222E0,5.175594E0,1.0300248E0],"tree_param":{"num_deleted":"0","num_feature":"133","num_nodes":"9","size_leaf_vector":"1"}},{"base_weights":[-4.130238E-2,-1.3523144E-1,8.940636E-1,5.778833E-1,-9.9725194E-2],"categories":[],"categories_nodes":[],"categories_segments":[],"categories_sizes":[],"default_left":[0,0,0,0,0],"id":131,"left_children":[1,-1,3,-1,-1],"loss_changes":[4.834312E0,0E0,5.5244226E0,0E0,0E0],"parents":[2147483647,0,0,2,2],"right_children":[2,-1,4,-1,-1],"split_conditions":[1E0,-1.3523144E-1,1E0,5.778833E-1,-9.9725194E-2],"split_indices":[14,0,110,0,0],"split_type":[0,0,0,0,0],"sum_hessian":[1.0569854E1,7.7119317E0,2.857922E0,1.2420402E0,1.6158819E0],"tree_param":{"num_deleted":"0","num_feature":"133","num_nodes":"5","size_leaf_vector":"1"}},{"base_weights":[-8.152594E-2,5.8546644E-2,-1.1560559E-1,1.954261E-1,-9.939282E-2,9.70897E-2,-8.366858E-2],"categories":[],"categories_nodes":[],"categories_segments":[],"categories_sizes":[],"default_left":[0,0,0,0,0,0,0],"id":132,"left_children":[1,3,-1,5,-1,-1,-1],"loss_changes":[5.634216E-1,5.7525647E-1,0E0,5.590901E-1,0E0,0E0,0E0],"parents":[2147483647,0,0,1,1,3,3],"right_children":[2,4,-1,6,-1,-1,-1],"split_conditions":[1E0,1E0,-1.1560559E-1,1E0,-9.939282E-2,9.70897E-2,-8.366858E-2],"split_indices":[41,123,0,101,0,0,0],"split_type":[0,0,0,0,0,0,0],"sum_hessian":[1.1708879E1,8.5666895E0,3.1421897E0,6.70964E0,1.8570495E0,5.532053E0,1.1775869E0],"tree_param":{"num_deleted":"0","num_feature":"133","num_nodes":"7","size_leaf_vector":"1"}},{"base_weights":[2.1721883E-2,-1.3742426E-1,4.4544044E-1],"categories":[],"categories_nodes":[],"categories_segments":[],"categories_sizes":[],"default_left":[0,0,0],"id":133,"left_children":[1,-1,-1],"loss_changes":[9.040927E0,0E0,0E0],"parents":[2147483647,0,0],"right_children":[2,-1,-1],"split_conditions":[1E0,-1.3742426E-1,4.4544044E-1],"split_indices":[91,0,0],"split_type":[0,0,0],"sum_hessian":[1.0910104E1,8.733081E0,2.1770227E0],"tree_param":{"num_deleted":"0","num_feature":"133","num_nodes":"3",